{"model_type": "Sequential", "descriptors": [{"layer": "Input2D", "height": 1, "width": 1, "channel": 400, "batch": 1}, {"layer": "Dense2D", "units": 64}, {"layer": "Bias2D", "units": 64}, {"layer": "ReLu"}, {"layer": "Dense2D", "units": 64}, {"layer": "Bias2D", "units": 64}, {"layer": "ReLu"}, {"layer": "Dense2D", "units": 35}, {"layer": "Bias2D", "units": 35}, {"layer": "Softmax"}], "weights": [[[[[-0.008145662024617195, -0.06477145105600357, 0.049576565623283386, 0.05936526134610176, 0.018524784594774246, -0.0030966163612902164, -0.09907041490077972, 0.03971315175294876, -0.11483114212751389, 0.00026397782494314015, -0.1373378485441208, -0.0163104347884655, 0.0045950645580887794, 0.04510567709803581, -0.0684041902422905, -0.10698644816875458, 0.02721642144024372, -0.05374876409769058, 0.12940415740013123, -0.08672314137220383, 0.011763538233935833, 0.05766543000936508, -0.07742631435394287, 0.06502233445644379, -0.0889710783958435, 0.03748057782649994, -0.005079367663711309, 0.10807450860738754, -0.04372265562415123, 0.006198058370500803, -0.09849756956100464, -0.014419494196772575, 0.048585932701826096, 0.021713096648454666, 0.007300796918570995, 0.055190328508615494, -0.005454879719763994, -0.07345207035541534, -0.00836868491023779, -0.12788353860378265, -0.10589293390512466, 0.07459899038076401, 0.09197434037923813, 0.07638813555240631, 0.04872417077422142, -0.017334140837192535, -0.13237273693084717, -0.039893317967653275, 0.05362613499164581, -0.03286629170179367, 0.001590588130056858, -0.0860155001282692, 0.09501912444829941, -0.10401856154203415, -0.029192853718996048, -0.011038418859243393, 0.07879366725683212, 0.13271473348140717, -0.0013798895524814725, 0.03295056149363518, 0.07824830710887909, 0.05183000862598419, -0.010340104810893536, -0.12182819098234177], [0.043860919773578644, 0.0311264768242836, 0.0835273489356041, 0.10240625590085983, -0.09548387676477432, -0.037108637392520905, 0.05502861365675926, -0.026558678597211838, -0.09844303876161575, 0.020533472299575806, -0.05762612447142601, 0.061684779822826385, -0.0014127310132607818, 0.06396801024675369, -0.04603675380349159, 0.04520498216152191, 0.06665126979351044, -0.13030558824539185, 0.11197890341281891, -0.05104022100567818, -0.10007689148187637, -0.0734180435538292, -0.09350578486919403, -0.06940869987010956, -0.038543470203876495, -0.07107650488615036, -0.03286499157547951, 0.029507199302315712, 0.019455473870038986, 0.0697498470544815, -0.07011979818344116, -0.11193649470806122, 0.05626550689339638, -0.017822854220867157, 0.08928444981575012, -0.11414993554353714, -0.05352456122636795, 0.06144855171442032, -0.05698241665959358, -0.07790664583444595, -0.08357430249452591, 0.06612805277109146, 0.119880311191082, -0.10952632874250412, 0.030838025733828545, 0.01865195296704769, 0.03787117823958397, 0.05965995416045189, 0.042782530188560486, -0.06198882311582565, 0.09401607513427734, -0.06279988586902618, -0.09363200515508652, 0.020192096009850502, -0.007473915349692106, 0.01657397672533989, -0.05305426940321922, -0.024666093289852142, -0.03455158695578575, -0.11970005184412003, -0.02603931911289692, 0.10667862743139267, 0.06682569533586502, 0.01801634393632412], [-0.04154572635889053, 0.01353597640991211, -0.11696247011423111, 0.0031712856143712997, -0.11620564013719559, -0.0786363035440445, -0.005505384411662817, 0.07343887537717819, 0.006581506226211786, -0.11611705273389816, 6.264627154450864e-05, 0.09078239649534225, 0.011983993463218212, -0.06781847029924393, -0.07246599346399307, 0.027687007561326027, -0.07704523205757141, -0.08991049975156784, 0.0965161919593811, -0.10523588955402374, -0.02034192532300949, 0.02415313944220543, -0.06429427862167358, -0.05692968890070915, -0.033848557621240616, 0.022180670872330666, 0.015148471109569073, -0.029116205871105194, -0.1297212839126587, 0.06268247961997986, 0.10922471433877945, -0.11459098756313324, -0.06347990036010742, -0.06907999515533447, 0.07132196426391602, -0.0437559075653553, -0.03370429202914238, -0.02196545898914337, 0.08064093440771103, -0.06390390545129776, -0.013273882679641247, 0.12924408912658691, 0.10402767360210419, -0.12309298664331436, 0.011463060043752193, -0.08448272198438644, -0.12412641942501068, 0.05006064102053642, -0.07534139603376389, -0.071863554418087, -0.058499760925769806, -0.09073372185230255, 0.055550750344991684, -0.053979963064193726, -0.06956976652145386, -0.038433708250522614, -0.0990498811006546, -0.04538588225841522, -0.11926549673080444, -0.07164584845304489, -0.007736938539892435, 0.11461884528398514, 0.05856877937912941, -0.006267542485147715], [0.03363350033760071, 0.10312948375940323, 0.06351400166749954, -0.0076454514637589455, -0.04758337140083313, -0.08557971566915512, 0.06148168072104454, -0.1103254184126854, -0.027044454589486122, 0.08397955447435379, -0.0807674452662468, -0.051138658076524734, -0.036563560366630554, -0.0930938571691513, 0.03403671830892563, -0.10215562582015991, -0.15200664103031158, 0.009161963127553463, -0.04623055458068848, 0.0010459962068125606, -0.05176883190870285, 0.10318309813737869, -0.11314882338047028, 0.10456328094005585, -0.00493654515594244, -0.008728889748454094, 0.00906367227435112, 0.02921842597424984, -0.07205478101968765, 0.02216898277401924, 0.010163463652133942, -0.09050938487052917, 0.0014389578718692064, 0.016395438462495804, -0.05866588279604912, 0.07005224376916885, -0.052921995520591736, -0.08373163640499115, -0.08329752832651138, -0.043967124074697495, 0.001696018036454916, 0.1383034735918045, 0.014972551725804806, -0.11911889165639877, -0.02586090750992298, -0.004973290022462606, -0.027201306074857712, 0.022001735866069794, -0.10476410388946533, -0.10537412017583847, 0.039015114307403564, 0.03430444374680519, 0.055118706077337265, -0.07039476186037064, -0.059709496796131134, -0.01888594590127468, 0.05964745208621025, 0.02560678869485855, -0.07259606570005417, 0.06499128043651581, -0.08516140282154083, 0.06348800659179688, -0.06923823803663254, -0.07132457941770554], [0.06071945279836655, -0.013773415237665176, 0.07982442528009415, -0.10462328046560287, 0.051183007657527924, 0.09816493839025497, 0.06412327289581299, 0.033369727432727814, 0.012179093435406685, 0.02661307156085968, -0.08516869693994522, 0.02722710743546486, -0.052684929221868515, -0.004335927311331034, -0.07741028815507889, -0.10018028318881989, -0.14544938504695892, -0.005859880708158016, 0.1120767742395401, 0.033073000609874725, -0.023946218192577362, 0.07473745197057724, -0.13758069276809692, -0.0970069169998169, -0.06839962303638458, -0.12493754923343658, -0.052358463406562805, 0.08685664087533951, 0.03392757847905159, 0.06856435537338257, 0.09920994937419891, 0.00934283435344696, -0.07862481474876404, 0.06693299859762192, -0.03930879384279251, -0.08030333369970322, 0.0886988565325737, 0.032364871352910995, 0.10939794033765793, 0.08837256580591202, -0.1372056007385254, -0.05592922493815422, -0.04721212014555931, 0.00023577672254759818, -0.031179634854197502, 0.04936742037534714, -0.034873027354478836, -0.06644869595766068, 0.05668085068464279, -0.016594894230365753, 0.07376205921173096, 0.08787062019109726, -0.10117872804403305, -0.11275950819253922, 0.027005739510059357, 0.010071929544210434, 0.0060021947138011456, 0.12531913816928864, -0.10657630115747452, 0.024474896490573883, -0.12017106264829636, 0.0947657898068428, -0.076319120824337, -0.13011518120765686], [-0.09653139114379883, -0.0774756446480751, -0.09468808770179749, 0.030030062422156334, -0.08325809985399246, -0.002711250213906169, -0.043822575360536575, -0.019200336188077927, -0.042564887553453445, 0.0681459903717041, 0.07174011319875717, -0.01246388629078865, -0.02831191197037697, 0.11496718227863312, 0.06620457768440247, -0.031026381999254227, -0.14894446730613708, 0.08381374180316925, -0.009028797969222069, 0.019439667463302612, -0.1471121609210968, 0.03145693987607956, 0.06450843065977097, -0.02395046129822731, -0.03549546003341675, -0.05894423648715019, -0.04961169883608818, 0.08247864991426468, 0.012144587934017181, -0.06898020207881927, -0.10217564553022385, 0.08838719874620438, -0.09555033594369888, 0.08019556105136871, 0.08400722593069077, -0.12192586064338684, 0.05838857218623161, 0.10385580360889435, -0.006160694640129805, 0.08359683305025101, -0.06231798604130745, -0.0571015439927578, -0.02812008745968342, -0.06388050317764282, 0.0411236397922039, -0.056932851672172546, -0.027598237618803978, 0.029308198019862175, -0.07137525826692581, 0.10504422336816788, -0.06542710959911346, 0.03096439503133297, 0.07730187475681305, -0.06309231370687485, 0.03271189332008362, -0.031129339709877968, 0.025861460715532303, 0.07824315875768661, 0.026453455910086632, -0.05486258491873741, 0.03091372549533844, 0.06516733020544052, -0.057076048105955124, -0.12479198724031448], [-0.12353600561618805, 0.048601601272821426, 0.03716994449496269, -0.04774417355656624, -0.03077707439661026, -0.0501326248049736, 0.014673174358904362, 0.0661218911409378, -0.12109199166297913, -0.11429554969072342, 0.031326815485954285, -0.08399314433336258, -0.0374920554459095, 0.09356778860092163, 0.02756994031369686, -0.006595815997570753, -0.08939363807439804, 0.021398821845650673, 0.008581187576055527, -0.014878496527671814, 0.07139089703559875, -0.09969236701726913, -0.02409883588552475, -0.03473837301135063, -0.009299570694565773, -0.03913874924182892, -0.05876104161143303, 0.020292919129133224, -0.001132703386247158, 0.06187716871500015, -0.046782128512859344, 0.10213164985179901, 0.10300683230161667, 0.10994850844144821, -0.04267934709787369, -0.06708970665931702, -0.06217624992132187, -0.036575719714164734, -0.025596991181373596, -0.09698802977800369, -0.0741606056690216, 0.13267578184604645, -0.0162670835852623, -0.11951978504657745, -0.04770269617438316, -0.0900113508105278, -0.054352760314941406, 0.02365880273282528, -0.017116310074925423, 0.08972743898630142, -0.08974502235651016, 0.027566758915781975, 0.0606062188744545, -0.04176530987024307, -0.10162818431854248, -0.11697951704263687, 0.05601833015680313, 0.11481374502182007, 0.08378352969884872, -0.09811396151781082, -0.0904550775885582, -0.0759257823228836, 0.01474825944751501, -0.08253191411495209], [-0.05968062952160835, -0.08219196647405624, 0.029190782457590103, -0.026367396116256714, -0.07456619292497635, 0.0792989581823349, -0.020704787224531174, -0.024847323074936867, -0.023386171087622643, -0.026826417073607445, 0.02609928697347641, 0.09782661497592926, -0.048263415694236755, -0.04502752423286438, -0.016297567635774612, -0.012061565183103085, -0.10631825029850006, -0.06017087772488594, 0.12942829728126526, -0.08512009680271149, 0.0020339752081781626, 0.007929179817438126, -0.01949978992342949, -0.05963084474205971, -0.028382863849401474, -0.03811386972665787, -0.08494311571121216, -0.08903577923774719, 0.01334202941507101, 0.1269521713256836, 0.11051146686077118, -0.07969485968351364, 0.07003409415483475, 0.059180837124586105, -0.04770401865243912, 0.09843210875988007, 0.03951384127140045, 0.10794663429260254, 0.04140976816415787, -0.04274885356426239, 0.05724501609802246, 0.1703900694847107, 0.06093987450003624, 0.008785377256572247, 0.06374050676822662, -0.1417505294084549, -0.16719837486743927, -0.00993930920958519, -0.0782715454697609, -0.09086640179157257, -0.01962427794933319, 0.10900075733661652, 0.03439046069979668, -0.04703248292207718, -0.007178579457104206, -0.03173384442925453, 0.09113011509180069, -0.05580563098192215, -0.055715423077344894, 0.03042731247842312, 0.006553960498422384, -0.010128387250006199, 0.12199429422616959, -0.06842222064733505], [-0.035361770540475845, -0.04900730401277542, 0.045580822974443436, 0.103271484375, 0.04699200019240379, 0.07554486393928528, -0.025540057569742203, -0.06398916989564896, 0.03372293710708618, -0.020952465012669563, 0.015008187852799892, 0.040834762156009674, 0.005513664800673723, -0.07053764164447784, -0.1091088205575943, 0.09571871161460876, -0.12753887474536896, -0.09529358148574829, 0.020724523812532425, -0.096987783908844, -0.03378763049840927, -0.09147017449140549, -0.037188820540905, -0.03241151571273804, 0.03254377469420433, 0.06790030002593994, -0.10936301946640015, -0.15827856957912445, -0.06360538303852081, 0.002530318684875965, -0.09550125151872635, -0.08428258448839188, 0.06701236218214035, 0.02411908656358719, 0.04902220889925957, -0.09042853862047195, 0.09104497730731964, -0.08756391704082489, 0.09779854118824005, -0.042000606656074524, -0.05166000872850418, -0.05574655905365944, 0.14771758019924164, 0.07270297408103943, 0.036537833511829376, 0.03502212092280388, -0.008909144438803196, 0.013801594264805317, 0.05616156756877899, -0.09716992825269699, -0.026646830141544342, 0.10738875716924667, 0.05052144452929497, 0.02498803660273552, 0.028643334284424782, -0.10341601818799973, 0.0005067533347755671, 0.1068570464849472, -0.06060070917010307, -0.014165760017931461, 0.07796601951122284, -0.0887843444943428, 0.07676325738430023, 0.03301910683512688], [0.06205029785633087, -0.18750175833702087, 0.05364734306931496, 0.05230570212006569, -0.09750059247016907, 0.11314266920089722, 0.0709034651517868, 0.03423814848065376, -0.05492524057626724, -0.11497792601585388, -0.06241950765252113, 0.05911937355995178, 0.0013713034568354487, -0.0659475326538086, -0.02161509171128273, -0.08719245344400406, -0.09960491955280304, -0.081743024289608, -0.05639909952878952, 0.09909798949956894, 0.029283670708537102, -0.025046659633517265, -0.03759901225566864, -0.03501223772764206, -0.1430978924036026, 0.01698620431125164, -0.013868273235857487, -0.020045528188347816, -0.09453196078538895, -0.092213936150074, -0.09645158052444458, 0.05528459697961807, -0.13578858971595764, 0.06841684877872467, 0.020125502720475197, -0.005630836822092533, 0.07557136565446854, -0.03728089481592178, 0.03453076630830765, 0.03807733207941055, 0.008881041780114174, -0.032973334193229675, 0.1399078220129013, -0.0686098039150238, -0.09361845254898071, -0.03763919696211815, -0.06612363457679749, -0.009955760091543198, -0.00022043623903300613, 0.09576206654310226, -0.022424599155783653, 0.05743026360869408, -0.05274558067321777, -0.13419149816036224, -0.01096849050372839, -0.11111867427825928, 0.04009129852056503, 0.17541107535362244, -0.1155363917350769, 0.02454269304871559, -0.003694324754178524, 0.0010963777313008904, 0.06027040258049965, -0.10497318208217621], [-0.015717973932623863, -0.055141571909189224, 0.039765533059835434, 0.025154445320367813, 0.018127374351024628, -0.02177344262599945, 0.03407330438494682, -0.09612788259983063, -0.0041333469562232494, -0.0943911001086235, -0.1414460390806198, -0.08870294690132141, 0.07114540785551071, -0.09232605993747711, 0.029753658920526505, 0.06146446615457535, -0.04857352748513222, -0.12623246014118195, -0.07419992983341217, -0.00810243096202612, 0.11519185453653336, 0.07168252766132355, -0.0332375094294548, 0.07834962755441666, -0.04904027655720711, -0.0518396832048893, -0.00528631592169404, -0.008348685689270496, -0.16699929535388947, 0.059476785361766815, -0.1251572221517563, 0.06253209710121155, -0.08517447859048843, -0.01757322996854782, -0.1005706861615181, -0.0038116099312901497, -0.014973401091992855, -0.0324026457965374, -0.13264036178588867, 0.015172546729445457, -0.05480724200606346, 0.13336710631847382, 0.08618198335170746, -0.03664229065179825, 0.08251930773258209, -0.025958579033613205, 0.0720762088894844, -0.00557369040325284, -0.12132295966148376, -0.03871071711182594, 0.021752648055553436, 0.0505819171667099, -0.010770718567073345, 0.059193890541791916, -0.14821311831474304, -0.00913416687399149, 0.06510104984045029, 0.1587669849395752, 0.08385132253170013, 0.038374435156583786, -0.07082083076238632, 0.01371979620307684, -0.05698604881763458, -0.0311299916356802], [0.02113477885723114, -0.08132674545049667, -0.04134037345647812, -0.07588580995798111, 0.011631488800048828, 0.0138927036896348, 0.16530749201774597, -0.15670713782310486, 0.002057885518297553, 0.08575746417045593, 0.0011821509106084704, -0.019694922491908073, -0.010855572298169136, -0.04423088952898979, -0.1534750759601593, -0.07931234687566757, -0.09842394292354584, -0.05824337527155876, -0.010937787592411041, 0.11027771979570389, -0.11814016103744507, 0.04424279183149338, -0.11892601102590561, 0.07616718858480453, -0.09070530533790588, 0.06591054797172546, -0.07318607717752457, 0.022155435755848885, -0.18701301515102386, 0.062234729528427124, -0.01850140653550625, 0.04917130619287491, 0.11065349727869034, 0.029003644362092018, -0.09281348437070847, 0.018161548301577568, 0.11137952655553818, 0.04456548020243645, -0.057494282722473145, -0.0985582172870636, -0.10691095888614655, -0.04197557643055916, -0.03628777712583542, -0.12422694265842438, 0.042605672031641006, -0.007024819031357765, 0.1271093189716339, -0.010823283344507217, -0.050424572080373764, -0.07249068468809128, -0.010622303001582623, -0.001967624993994832, 0.15503324568271637, -0.17523141205310822, -0.02797831781208515, -0.0071623963303864, -0.04060135781764984, 0.17464056611061096, -0.0860113874077797, -0.045353736728429794, -0.12373213469982147, 0.06368869543075562, 0.007240102626383305, -0.16677230596542358], [-0.14618973433971405, -0.01727725751698017, 0.07015638798475266, -0.055188413709402084, 0.07353463023900986, 0.056712131947278976, 0.061271414160728455, -0.10054003447294235, -0.03634696826338768, -0.04594554752111435, -0.01960877887904644, -0.06585477292537689, -0.013170643709599972, 0.10079272836446762, -0.014993149787187576, -0.028429759666323662, -0.16494590044021606, -0.147396057844162, 0.1461692899465561, -0.0793294832110405, -0.018813442438840866, 0.03052595630288124, -0.08839856833219528, 0.09941883385181427, -0.05937588959932327, 0.030497021973133087, -0.03657161816954613, 0.0036965012550354004, -0.0970243439078331, 0.059108395129442215, -0.07802604138851166, -0.02975357510149479, 0.08757781237363815, 0.032617535442113876, -0.0786573737859726, -0.13746753334999084, -0.07306185364723206, 0.1254286766052246, 0.02021547593176365, -0.13203221559524536, -0.018300296738743782, 0.001802769722416997, 0.1189960390329361, 0.014624465256929398, 0.07825809717178345, -0.019311193376779556, -0.01846460998058319, -0.04786637797951698, 0.022273024544119835, 0.11952938884496689, -0.0024941822048276663, -0.05217844992876053, -0.008597112260758877, -0.17166033387184143, 0.009268696419894695, -0.13014569878578186, -0.1490633338689804, 0.08758354932069778, -0.12293728440999985, -0.08369952440261841, -0.11555474251508713, 0.0776081308722496, -0.07128171622753143, 0.04007523134350777], [-0.026556024327874184, -0.004262056667357683, -0.042136695235967636, -0.08517365902662277, -0.14592863619327545, -0.09275070577859879, 0.004846598021686077, -0.026785671710968018, -0.04683816805481911, -0.02608046494424343, -0.04208827391266823, -0.05016486346721649, -0.14025408029556274, 0.0870799571275711, 0.024095874279737473, -0.10039481520652771, -0.13030484318733215, -0.1585724651813507, 0.060528889298439026, 0.025199322029948235, -0.026892496272921562, 0.16767702996730804, 0.02445908822119236, 0.07655365765094757, -0.10215973854064941, -0.06692570447921753, -0.0603410005569458, 0.04786556586623192, 0.02282830700278282, -0.11019136011600494, 0.05208318307995796, 0.050914838910102844, 0.11091131716966629, 0.14733441174030304, 0.0685206800699234, -0.026041420176625252, 0.07275380939245224, 0.04034234583377838, -0.06540276855230331, 0.0006935793207958341, -0.009124119766056538, -0.002475307323038578, 0.1421978771686554, -0.13607096672058105, 0.034146297723054886, -0.08331473171710968, 0.06155286729335785, 0.03733739256858826, 0.023212241008877754, -0.09963741898536682, 0.1815124899148941, -0.006368863862007856, 0.004629355855286121, 0.008839205838739872, -0.03985877335071564, 0.05851859599351883, -0.07963663339614868, 0.16708920896053314, 0.025479339063167572, 0.0031042182818055153, -0.00042249259422533214, -0.03592546284198761, -0.03521818667650223, -0.10903600603342056], [0.018900901079177856, -0.05414724349975586, -0.028100866824388504, -0.09845827519893646, -0.06055936589837074, 0.005885065998882055, 0.0762271136045456, -0.13653521239757538, -0.148607537150383, -0.08037783950567245, 0.02051192708313465, -0.029743576422333717, 0.012824551202356815, -0.08551197499036789, -0.09087851643562317, -0.017103616148233414, -0.10691393166780472, -0.029783546924591064, -0.008623271249234676, -0.1114458292722702, -0.04408150166273117, -0.025184160098433495, 0.028437066823244095, -0.08161702752113342, -0.108980692923069, 0.039951395243406296, 0.03689431771636009, 0.10866285860538483, -0.16211262345314026, -0.00024349935119971633, -0.04581385850906372, 0.026460811495780945, -0.03552480787038803, 0.07155897468328476, -0.09429729729890823, -0.10632991790771484, -0.014548512175679207, -0.056193940341472626, -0.07588425278663635, 0.05632566288113594, -0.09448310732841492, 0.10820537805557251, 0.026135394349694252, 0.04207314923405647, 0.0852496400475502, -0.07313308119773865, 0.1427612602710724, -0.09261449426412582, 0.05926833301782608, 0.06571462750434875, 0.04109586030244827, 0.10243217647075653, -0.021678626537322998, 0.0072934795171022415, -0.003963044378906488, -0.03447074443101883, 0.0301219392567873, 0.11026298254728317, 0.0954577624797821, -0.10770745575428009, -0.1080847978591919, 0.07154723256826401, -0.03955605998635292, 0.11752505600452423], [-0.02890421822667122, -0.006955071352422237, -0.029572853818535805, 0.04440563544631004, -0.10686615109443665, 0.05400748923420906, -0.07808773219585419, 0.09375724196434021, -0.06732639670372009, -0.13289128243923187, -0.06044737622141838, -0.1020214632153511, 0.047040317207574844, 0.013444360345602036, -0.09517573565244675, 0.00621445057913661, -0.0030855201184749603, 0.05488033965229988, -0.06786881387233734, 0.03732761740684509, -0.1337769627571106, -0.08415958285331726, 0.046944815665483475, 0.09457605332136154, -0.026476845145225525, -0.011195827275514603, 0.03372308984398842, 0.02314159646630287, -0.00729523366317153, 0.040275197476148605, -0.01505202241241932, 0.05538308620452881, 0.0034387363120913506, 0.034099407494068146, -0.07662467658519745, -0.06696552038192749, -0.05715432018041611, 0.08594045788049698, 0.1256362795829773, 0.05114623159170151, -0.0013918251497671008, -0.06039018556475639, 0.07034516334533691, 0.024153320118784904, 0.1515096127986908, -0.07399992644786835, -0.030896471813321114, 0.10351265966892242, -0.07549227029085159, 0.03730618208646774, 0.05669676512479782, 0.02516144886612892, 0.015598263591527939, 0.057226113975048065, 0.04036009684205055, 0.01090245135128498, -0.12579961121082306, -0.08297663182020187, 0.097453773021698, -0.12682011723518372, 0.04294920340180397, 0.005899807903915644, 0.04247144237160683, -0.04379066079854965], [-0.08254344016313553, 0.10273054242134094, 0.039223723113536835, -0.11101455986499786, 0.02942684479057789, 0.06297850608825684, -0.04045180603861809, 0.0031244338024407625, -0.038448482751846313, -0.007143938448280096, -0.13574126362800598, 0.05499454587697983, -0.023502953350543976, 0.12053317576646805, -0.04945644736289978, -0.08898122608661652, -0.002215048996731639, 0.0701775997877121, -0.049377962946891785, 0.05302361026406288, 0.03237520530819893, 0.07020136713981628, 0.03566395491361618, 0.11033463478088379, -0.08123377710580826, 0.05041312053799629, -0.12166795879602432, 0.0680052638053894, 0.04129669442772865, 0.03276022523641586, -0.010371622629463673, 0.05485338717699051, 0.045729104429483414, 0.04688220098614693, 0.10282876342535019, -0.05811908468604088, -0.08568465709686279, -0.080482117831707, -0.09458031505346298, 0.05064493790268898, -0.11136635392904282, 0.0905546098947525, 0.042684320360422134, 0.07484911382198334, 0.06386717408895493, -0.03801530599594116, 0.0479251928627491, -0.08198320865631104, -0.08106700330972672, 0.04711216315627098, -0.028309207409620285, 0.022987252101302147, -0.11397769302129745, 0.028142955154180527, -0.02826516330242157, 0.0358964204788208, 0.0064353374764323235, 0.04406313598155975, 0.0751880630850792, 0.03893303871154785, -0.05296551063656807, 0.04277050495147705, 0.029806867241859436, -0.06394453346729279], [-0.006615018472075462, 0.09726285189390182, 0.011455103754997253, -0.04466136172413826, -0.05430586263537407, -0.08018911629915237, -0.07487824559211731, 0.07836409658193588, 0.0765824243426323, -0.040934156626462936, -0.0629875585436821, 0.006838191766291857, -0.009612994268536568, 0.10088247805833817, 0.08800439536571503, 0.03425928205251694, 0.06911181658506393, 0.03005141019821167, 0.11020821332931519, 0.09772173315286636, 0.04045020416378975, 0.0005654903361573815, 0.002910435665398836, -0.08811017870903015, -0.0017138775438070297, -0.08506131172180176, -0.09062638133764267, 0.09167765080928802, -0.11785338819026947, 0.11912495642900467, 0.07076670229434967, 0.06235121563076973, -0.1006132960319519, 0.004330779425799847, -0.0765385851264, -0.045790303498506546, -0.033751361072063446, 0.09671889990568161, -0.01521912869066, -0.06727909296751022, -0.011670500040054321, -0.055310025811195374, -0.017322096973657608, -0.1222059428691864, 0.037453923374414444, 0.0027952175587415695, -0.13590115308761597, 0.09085699915885925, -0.05033111199736595, -0.029218027368187904, 0.08876733481884003, 0.09505241364240646, -0.12815949320793152, -0.0776766762137413, -0.016763819381594658, -0.05865808576345444, 0.052396826446056366, -0.03887270763516426, 0.022283578291535378, 0.0579160712659359, -0.016907161101698875, -0.09171430766582489, 0.03074457310140133, -0.10412614792585373], [-0.023704644292593002, -0.01886325143277645, -0.11065907031297684, 0.053085289895534515, 0.04894442483782768, 0.059931680560112, -0.09901237487792969, 0.09452466666698456, -0.08338747173547745, -0.011490981094539165, 0.019542964175343513, -0.05049792304635048, -0.07700283825397491, -0.07684896886348724, -0.04191499203443527, -0.10426652431488037, -0.14135177433490753, -0.10524321347475052, -0.08332081139087677, -0.09326061606407166, -0.13686588406562805, 0.0745059922337532, -0.12225543707609177, 0.013056392781436443, 0.035743050277233124, 0.039007484912872314, -0.07591947913169861, 0.046935100108385086, 0.0402190126478672, 0.05245545133948326, 0.10098984092473984, 0.027796754613518715, -0.08391235768795013, 0.0455472506582737, -0.06005400791764259, -0.0729449912905693, 0.11226299405097961, -0.07649946212768555, -0.017177149653434753, 0.00409826310351491, 0.006221541203558445, -0.06632905453443527, 0.09020189195871353, -0.040791627019643784, -0.07297170907258987, -0.07224816083908081, -0.08181992918252945, 0.012983334250748158, -0.13978314399719238, -0.044858504086732864, 0.04616764560341835, -0.006275878753513098, 0.025697821751236916, 0.0398583710193634, 0.03982309624552727, 0.09880486130714417, 0.05665687844157219, 0.07639879733324051, -0.053864527493715286, -0.023545997217297554, -0.11216919869184494, 0.025764359161257744, 0.036170706152915955, 0.04773813858628273], [-0.14060403406620026, -0.07615862041711807, -0.006004668306559324, 0.07848799973726273, -0.0334567055106163, 0.08027433604001999, 0.053736161440610886, -0.028160318732261658, -0.010834259912371635, 0.08734496682882309, -0.009735872969031334, -0.009383435361087322, -0.036313436925411224, -0.0845872014760971, 0.10239227861166, -0.11311511695384979, 0.05682000517845154, 0.007264314219355583, -0.034545183181762695, 0.005816914606839418, -0.10948764532804489, 0.0849677249789238, -0.0027480022981762886, -0.024591373279690742, 0.0469248965382576, -0.036764539778232574, -0.05394010990858078, -0.06598050147294998, -0.06821145862340927, 0.10749499499797821, 0.010681813582777977, -0.05106126889586449, -0.05247214809060097, -0.09515463560819626, 0.025500766932964325, -0.12064871937036514, -0.08194487541913986, 0.0253317728638649, -0.026645340025424957, -0.13147296011447906, 0.04329251870512962, 0.1280655413866043, 0.12252967059612274, -0.020551780238747597, -0.03767025098204613, 0.06731874495744705, -0.1095217913389206, -0.05764445662498474, 0.0092294467613101, -0.033477768301963806, -0.067657470703125, -0.027087515220046043, -0.026325205340981483, -0.09356176108121872, -0.05575378239154816, 0.03668041527271271, -0.0388837493956089, -0.011286771856248379, -0.08783087879419327, -0.12089557200670242, -0.1298750936985016, 0.054929882287979126, 0.10339648276567459, 0.023850316181778908], [-0.13104182481765747, 0.09511324018239975, 0.06810643523931503, -0.08093810826539993, -0.03674390912055969, 0.10943856090307236, 0.0511627271771431, -0.10487062484025955, 0.006212059874087572, 0.005159852560609579, -0.02624157816171646, 0.0653594508767128, 0.028258182108402252, -0.08736564218997955, -0.10289730876684189, -0.022225957363843918, -0.0037554940208792686, 0.0016884884098544717, -0.07091979682445526, -0.03059166856110096, -0.025431331247091293, -0.06378097087144852, 0.032976649701595306, -0.02406684122979641, -0.15800729393959045, 0.015577420592308044, 0.017507070675492287, 0.06792337447404861, -0.09336986392736435, -0.09285587072372437, 0.09698207676410675, -0.10480403900146484, -0.03322654217481613, 0.12536141276359558, 0.07505400478839874, -0.09824515134096146, 0.103571318089962, 0.10567818582057953, -0.029178177937865257, -0.055023450404405594, 0.009233435615897179, 0.1174931451678276, 0.09528256207704544, 0.04329942539334297, -0.06291072070598602, -0.09315624088048935, 0.06734371185302734, 0.10133416950702667, -0.09871406853199005, -0.01512875221669674, -0.03518547862768173, 0.07184102386236191, -0.12555663287639618, 0.09472031146287918, -0.12530261278152466, -0.11533309519290924, -0.09731165319681168, -0.07721420377492905, -0.12125398963689804, -0.016866493970155716, -0.005607208702713251, -0.014587313868105412, 0.007395619992166758, -0.0044044870883226395], [-0.05503126233816147, 0.08352581411600113, -0.0356733500957489, 0.036232221871614456, 0.04832854121923447, -0.014877070672810078, 0.037413060665130615, -0.08514579385519028, 0.004182014614343643, 0.09749870747327805, 0.021926283836364746, -0.06091603264212608, -0.091356560587883, -0.047440577298402786, 0.11063296347856522, 0.07867154479026794, -0.07143110036849976, -0.1137194037437439, 0.026742402464151382, 0.008556442335247993, -0.08547451347112656, -0.04107474908232689, -0.12502221763134003, 0.06682251393795013, 0.06688377261161804, -0.06506416946649551, 0.03476932644844055, -0.10181913524866104, -0.031867120414972305, 0.08625215291976929, -0.07188691198825836, -0.033510301262140274, -0.051166508346796036, -0.09320587664842606, 0.048039671033620834, 0.07960230857133865, 0.028387757018208504, 0.08492140471935272, -0.005292447283864021, -0.03133813291788101, 0.007095462642610073, 0.011080758646130562, 0.08253370970487595, -0.035065677016973495, 0.08356569707393646, 0.06191403791308403, 0.006907584611326456, 0.07335454225540161, -0.04004387557506561, 0.10138457268476486, -0.050663433969020844, 0.0024604210630059242, -0.01716223545372486, 0.09183397144079208, 0.04010329023003578, 0.046065837144851685, -0.01586226560175419, -0.03511873632669449, 0.052445560693740845, -0.10784903913736343, 0.02775304950773716, -0.007500450126826763, 0.04070185124874115, 0.03848489001393318], [0.009212439879775047, 0.009910685010254383, 0.051141977310180664, 0.0801948755979538, -0.03273880481719971, 0.12055585533380508, -0.012152539566159248, 0.004621545784175396, -0.003443158697336912, 0.07850904017686844, -0.05049041286110878, 0.05637797340750694, -0.14710165560245514, 0.048335179686546326, 0.09496758878231049, -0.00245313486084342, 0.055014774203300476, 0.04844655469059944, 0.031665634363889694, 0.09404350072145462, -0.020877039059996605, -0.08432262390851974, 0.0018848651088774204, 0.05751940608024597, 0.01621236279606819, 0.028265099972486496, 0.08193471282720566, 0.04932377487421036, -0.020635327324271202, 0.08089961856603622, 0.03740585595369339, 0.08934628218412399, 0.007935408502817154, 0.012018437497317791, 0.07364550977945328, 0.09464415907859802, -0.09474475681781769, -0.09568290412425995, 0.04428866505622864, 0.06032334268093109, 0.038839537650346756, -0.028881080448627472, 0.11302746832370758, -0.10975384712219238, 0.03032514452934265, 0.11966000497341156, 0.06761369109153748, 0.0005344570381566882, 0.032610513269901276, -0.025370417162775993, -0.08504527807235718, 0.052759066224098206, 0.03104700893163681, -0.0366944745182991, 0.01430857740342617, -0.026866279542446136, 0.0914376899600029, -0.0654473602771759, -0.10880673676729202, 0.04012288153171539, -0.0005766769754700363, -0.09542318433523178, 0.025356583297252655, -0.13798752427101135], [0.06305917352437973, 0.032731425017118454, -0.07704295963048935, -0.06731550395488739, 0.07848624885082245, 0.047147758305072784, 0.054163724184036255, -0.11646703630685806, -0.12116555124521255, 0.06027685105800629, 0.062379516661167145, -0.0905148983001709, -0.1388687640428543, -0.03888778015971184, 0.06265207380056381, 0.07309804856777191, -0.11267395317554474, -0.116446353495121, -0.08248905092477798, 0.014653663150966167, -0.13155458867549896, 0.01765868440270424, 0.00782465748488903, -0.06495442241430283, -0.046001043170690536, -0.10363509505987167, 0.022896982729434967, 0.04724607616662979, 0.023047270253300667, 0.03774547204375267, 0.03784647583961487, 0.03606120124459267, 0.03676239773631096, -0.08815187960863113, 0.05546834319829941, -0.05036912113428116, 0.04702601954340935, -0.01915641315281391, 0.01976015232503414, -0.09940452873706818, 0.06709746271371841, -0.05871356651186943, 0.014007763005793095, -0.04077192768454552, -0.05070536583662033, 0.05695165693759918, -0.06938792020082474, 0.09235288202762604, -0.019988322630524635, 0.024629946798086166, -0.08693424612283707, -0.09454387426376343, 0.06274998933076859, 0.08382479101419449, -0.013633061200380325, 0.06107931211590767, -0.1012679785490036, 0.07305831462144852, 0.05277836322784424, 0.05086049810051918, -0.016264935955405235, 0.0009755666833370924, 0.005220557097345591, -0.14003333449363708], [-0.10392868518829346, -0.018305715173482895, 0.005272075068205595, -0.037281669676303864, -0.09049955010414124, -0.034253112971782684, 0.0895824208855629, -0.09557996690273285, -0.046253956854343414, -0.009025323204696178, -0.14482471346855164, -0.10280141234397888, 0.045976996421813965, -0.04542025551199913, 0.0943184643983841, -0.04892291501164436, 0.06029977649450302, -0.006453726440668106, -0.06443994492292404, -0.052450355142354965, -0.14900387823581696, 0.08161865174770355, -0.10534284263849258, -0.027671093121170998, 0.02785215713083744, 0.04211898148059845, -0.0259453896433115, 0.07932466268539429, 0.062205709517002106, -0.08798345178365707, 0.0534994900226593, -0.07441985607147217, 0.056818459182977676, 0.1137506440281868, 0.04980703070759773, -0.10559698194265366, -0.033575382083654404, 0.05951184779405594, 0.117143914103508, -0.06874465942382812, -0.06657031923532486, 0.01464443001896143, -0.05501708388328552, -0.10937552899122238, 0.11985889822244644, 0.009054775349795818, 0.03746139258146286, 0.048484887927770615, -0.007991645485162735, -0.0013083540834486485, -0.06991428881883621, -0.08041691035032272, -0.09389641135931015, 0.01949370466172695, -0.12838856875896454, -0.006707281805574894, 0.06139110401272774, -0.04941727593541145, 0.10501314699649811, -0.02250543422996998, 0.023919053375720978, 0.01416329201310873, 0.01275678165256977, -0.128129780292511], [0.09433455765247345, -0.09932646155357361, -0.131014883518219, -0.08598238229751587, 0.030007237568497658, -0.08527185767889023, 0.04598866030573845, -0.010843058116734028, 0.05216128006577492, -0.1396234929561615, 0.07993261516094208, 0.08039580285549164, -0.09236416965723038, 0.11419280618429184, 0.09100290387868881, 0.08533350378274918, -0.022923296317458153, -0.11345522850751877, 0.1144879087805748, -0.09981521219015121, -0.08216770738363266, -0.11896069347858429, -0.04946677014231682, 0.09621229022741318, -0.015418199822306633, 0.006156737916171551, -0.028156930580735207, -0.05672182887792587, -0.03085564635694027, -0.08447011560201645, -0.06606502830982208, -0.10556339472532272, 0.07914922386407852, 0.08212486654520035, -0.014284422621130943, -0.07660844177007675, 0.030003132298588753, -0.07924940437078476, 0.0006095170392654836, 0.06680428981781006, 0.06685317307710648, -0.04776102304458618, -0.08337359130382538, -0.049759551882743835, 0.04447789117693901, 0.12221067398786545, 0.0009162895148620009, 0.010749604552984238, -0.11216265708208084, -0.1051148921251297, 0.10062810033559799, -0.004949098918586969, 0.08743896335363388, -0.09606846421957016, -0.05131320655345917, 0.027598025277256966, -0.08282377570867538, -0.009508125483989716, -0.04759090021252632, 0.03517317399382591, 0.08189138770103455, -0.042498618364334106, 0.06070179492235184, -0.01215811911970377], [-0.10477440804243088, 0.007150672376155853, -0.21029606461524963, -0.033676475286483765, -0.09412244707345963, 0.06261288374662399, 0.05380287021398544, -0.011976628564298153, 0.025294190272688866, -0.13886693120002747, 0.06077812239527702, 0.030966654419898987, -0.07710018754005432, 0.0997193232178688, -0.030969031155109406, 0.034996893256902695, -0.11915912479162216, -0.16165924072265625, -0.08004792779684067, 0.02170347422361374, -0.003223113715648651, 0.027450790628790855, -0.0821755900979042, -0.05235429108142853, -0.07673332095146179, 0.036920737475156784, 0.08100154250860214, -0.11420785635709763, -0.06662137061357498, 0.03309262916445732, 0.025392090901732445, 0.06299176812171936, -0.09346102178096771, -0.02246055193245411, 0.135949045419693, -0.003945169970393181, -0.01897423155605793, -0.05494743213057518, -0.03260358050465584, -0.04528268799185753, 0.11009098589420319, -0.04249589890241623, 0.06023290008306503, -0.06823770701885223, -0.08827155083417892, -0.00655156746506691, 0.0502963550388813, -0.011724056676030159, 0.09243450313806534, 0.13707490265369415, 0.06336233019828796, 0.03232721611857414, 0.05727953091263771, 0.034272607415914536, 0.024996913969516754, -0.0031317032407969236, 0.05024592950940132, -0.01283087208867073, -0.045294564217329025, 0.08530661463737488, 0.06619717925786972, 0.007157168351113796, -0.10008103400468826, -0.08766447752714157], [0.11669701337814331, -0.14656874537467957, -0.15336015820503235, 0.047794584184885025, 0.06035155430436134, -0.03396936133503914, 0.028766093775629997, -0.06110585480928421, 0.1345609575510025, -0.034180644899606705, 0.10506746172904968, -0.07756110280752182, 0.06548377871513367, -0.10430333018302917, 0.05717181786894798, 0.07761189341545105, 0.07816273719072342, -0.15131522715091705, 0.16352121531963348, -0.07150519639253616, 0.12872666120529175, -0.05041421204805374, -0.04765377938747406, -0.10532336682081223, 0.08902808278799057, 0.04112247750163078, 0.04807219281792641, -0.14979523420333862, 0.018888866528868675, -0.07224231958389282, -0.07247482985258102, 0.014220994897186756, -0.08441546559333801, 0.003647720906883478, 0.24194398522377014, -0.08413679152727127, -0.09680261462926865, -0.08006949722766876, -0.04640420898795128, -0.02617349848151207, -0.07497505098581314, -0.004134459886699915, 0.08160452544689178, -0.17955748736858368, -0.08243929594755173, 0.045574914664030075, -0.059307727962732315, -0.0690203607082367, -0.0669013187289238, 0.054833706468343735, -0.018577435985207558, 0.06526554375886917, 0.024026714265346527, 0.006831732112914324, -0.15247361361980438, -0.1615806370973587, -0.04190412908792496, 0.11646319180727005, 0.2587975561618805, 0.22237278521060944, -0.09785069525241852, -0.0878346785902977, -0.051122721284627914, 0.0029765397775918245], [-0.08027136325836182, -0.10922002047300339, -0.0004908000119030476, 0.11143527179956436, -0.04381992667913437, 0.1420537531375885, 0.1847778707742691, -0.09772732108831406, -0.11015477031469345, 0.12078232318162918, 0.034606367349624634, -0.13471810519695282, -0.06951265037059784, -0.08117638528347015, -0.08836225420236588, 0.18557234108448029, -0.07820939272642136, -0.13511548936367035, 0.13370250165462494, 0.1172068640589714, 0.22524100542068481, -0.040560174733400345, -0.10969383269548416, -0.0975625067949295, -0.0360422320663929, -0.05331868678331375, -0.020897895097732544, 0.002222968265414238, -0.07714802026748657, 0.12056193500757217, 0.0561569407582283, 0.00812480691820383, -0.1435609608888626, 0.1197836697101593, 0.1402290165424347, -0.0419074185192585, 0.04003782570362091, 0.10923208296298981, 0.0253134798258543, -0.009763249196112156, -0.1479450911283493, 0.19100600481033325, 0.08491051197052002, -0.0832853838801384, 0.05286174640059471, 0.07127619534730911, -0.03747263923287392, -0.09297787398099899, -0.12765824794769287, 0.02161995694041252, 0.08109977096319199, 0.10370586812496185, 0.22844423353672028, -0.1671980321407318, -0.03356924280524254, -0.261797696352005, -0.07043138146400452, 0.06102835386991501, 0.10739342123270035, -0.009934771806001663, -0.22612746059894562, 0.047036267817020416, -0.06631506234407425, -0.0735488012433052], [-0.016311516985297203, -0.19298608601093292, 0.01813403330743313, 0.027608288452029228, 0.010867821052670479, 0.1783071607351303, 0.2142629325389862, 0.02439361996948719, 0.06657494604587555, 0.09829862415790558, -0.12779144942760468, -0.02149694412946701, 0.06415344029664993, -0.040420759469270706, -0.054462332278490067, 0.06771953403949738, -0.11613204330205917, -0.16426187753677368, 0.13774652779102325, 0.08875337243080139, 0.09673130512237549, -0.018310416489839554, -0.03814688324928284, 0.0977724939584732, 0.037181008607149124, -0.009085973724722862, 0.0567253939807415, -0.11810018867254257, 0.0026397898327559233, -0.02318243868649006, -0.06895465403795242, -0.03322315216064453, -0.12565021216869354, -0.038696546107530594, -0.04375505819916725, -0.019829444587230682, -0.03607381507754326, -0.01650414802134037, -0.08184034377336502, -0.17392893135547638, -0.04065418243408203, 0.09309136122465134, 0.19906063377857208, -0.12365753203630447, 0.05223321169614792, -0.05656972900032997, -0.08140598982572556, 0.09699540585279465, -0.07049491256475449, -0.03472546488046646, 0.19623112678527832, 0.05832197517156601, 0.2669071853160858, -0.11670071631669998, -0.1536794900894165, -0.24433240294456482, -0.24100203812122345, 0.07933877408504486, 0.053111255168914795, -0.09940111637115479, -0.15541474521160126, 0.03417426720261574, -0.004914531018584967, -0.18868553638458252], [-0.22380907833576202, 0.08722637593746185, 0.007831556722521782, -0.12767918407917023, 0.12363172322511673, 0.016417087987065315, 0.24457202851772308, -0.04367811977863312, 0.07014957815408707, 0.10090119391679764, -0.1206936240196228, -0.06843709200620651, 0.05284146964550018, 0.002907842630520463, -0.13632509112358093, 0.09396730363368988, -0.29927095770835876, -0.1099553257226944, 0.14046242833137512, 0.14484287798404694, 0.010504706762731075, 0.18934093415737152, 0.02525901608169079, -0.08697482198476791, -0.11726488173007965, 0.00587853416800499, 0.03147396817803383, -0.06823232024908066, -0.19292092323303223, 0.04635630548000336, 0.06713715940713882, -0.06548848003149033, -0.010035691782832146, -0.04719718173146248, 0.08065895736217499, 0.021542200818657875, -0.061747390776872635, 0.030484231188893318, 0.09565192461013794, -0.15722304582595825, -0.05164886638522148, 0.0908605307340622, 0.045951128005981445, -0.008951669558882713, 0.10294198244810104, -0.031878262758255005, 0.05543199181556702, 0.05763848125934601, 0.016436826437711716, 0.07796332240104675, 0.13326969742774963, 0.05380938574671745, 0.044577859342098236, -0.21269848942756653, -0.02154144085943699, -0.2023223489522934, 0.024619227275252342, 0.1219429150223732, -0.10281547904014587, -0.2169305384159088, -0.025035273283720016, 0.05248710513114929, 0.04242642596364021, 0.02037978544831276], [0.05329912528395653, -0.10438886284828186, 0.007456745952367783, 0.02010153979063034, -0.119221031665802, -0.09979528188705444, 0.13258594274520874, 0.11909172683954239, 0.11693820357322693, 0.11307062208652496, -0.21269778907299042, 0.050604820251464844, 0.019813239574432373, -0.06876859068870544, -0.24096941947937012, -0.06336665153503418, -0.08067775517702103, -0.035914041101932526, 0.23205676674842834, 0.014326208271086216, 0.050452206283807755, 0.09262238442897797, 0.12111184746026993, 0.11380939185619354, 0.12942177057266235, 0.09256183356046677, 0.1271347552537918, 0.09714224189519882, -0.24212487041950226, 0.034673888236284256, -0.20704761147499084, -0.0055423034355044365, 0.03998551145195961, -0.09438815712928772, 0.05415424332022667, -0.0708024874329567, 0.08102856576442719, 0.0429052971303463, -0.027482790872454643, -0.05417759343981743, -0.11904600262641907, 0.09506333619356155, 0.13164973258972168, 0.020012592896819115, -0.04638965427875519, -0.19491484761238098, 0.24516604840755463, 0.05334942042827606, -0.20546258985996246, -0.07503853738307953, -0.0022047569509595633, 0.11488492041826248, 0.04677167162299156, -0.014091969467699528, 0.10540688037872314, -0.0573389045894146, -0.15547649562358856, 0.2721090316772461, -0.07762341946363449, 0.05332665517926216, -0.007547215558588505, 0.0872974768280983, 0.04321881756186485, -0.1280369609594345], [0.1550501435995102, -0.16816173493862152, -0.08445141464471817, -0.0857715755701065, -0.19396735727787018, 0.0029070121236145496, 0.11104647815227509, 0.16073720157146454, 0.10355915874242783, -0.04710453003644943, -0.10280915349721909, -0.03393356502056122, 0.024604210630059242, -0.19412152469158173, -0.2275480479001999, 0.12223973870277405, -0.21247942745685577, -0.13740083575248718, 0.24963253736495972, -0.08896087110042572, 0.16750086843967438, -0.04943600296974182, 0.016105331480503082, 0.12118551880121231, 0.17317809164524078, -0.0036160978488624096, 0.2559205889701843, -0.04628758132457733, -0.17860104143619537, 0.029886558651924133, -0.12244325131177902, 0.0033482196740806103, -0.08687560260295868, -0.0796419307589531, 0.06400252878665924, -0.15808920562267303, 0.14649875462055206, -0.08031623065471649, 0.01723136380314827, -0.003519463585689664, 0.09891282021999359, 0.1465122103691101, -0.041712675243616104, -0.0005747452960349619, -0.03895389288663864, -0.1791660189628601, 0.034926753491163254, -0.08082988858222961, -0.10784643143415451, 0.008353538811206818, -0.10851027071475983, 0.07502162456512451, 0.06693573296070099, 0.034280575811862946, 0.006910119205713272, 0.009644737467169762, -0.13367332518100739, 0.15528558194637299, -0.05443365126848221, 0.1396038681268692, -0.03131416440010071, 0.08026508241891861, 0.14949414134025574, -0.15193064510822296], [0.058745309710502625, 0.023981088772416115, -0.0081928800791502, 0.05363823473453522, 0.002931502414867282, -0.1155184805393219, 0.10828105360269547, 0.00309954141266644, -0.07084006816148758, 0.08271598070859909, 0.15183307230472565, -0.06258601695299149, 0.09475629776716232, -0.043049369007349014, -0.23402337729930878, -0.019560333341360092, 0.047246165573596954, -0.08346352726221085, -0.023156803101301193, 0.06481664627790451, 0.10700014233589172, 0.05294826254248619, 0.15809276700019836, 0.04480738192796707, 0.12051553279161453, 0.050925157964229584, -0.04563859850168228, 0.07007719576358795, -0.016106246039271355, -0.03225911408662796, -0.0643705204129219, -0.015070781111717224, -0.02224200963973999, -0.027178851887583733, -0.13956581056118011, -0.037769317626953125, 0.06463149189949036, 0.09785433858633041, 0.05676807090640068, 0.0322379432618618, 0.1005900576710701, 0.1098322719335556, -0.03525194153189659, -0.015936024487018585, 0.03323163092136383, -0.11047933250665665, 0.10555834323167801, 0.0400453545153141, -0.15356743335723877, 0.00136188929900527, 0.10435205698013306, 0.03856629878282547, 0.035912539809942245, -0.05034860223531723, -0.10183564573526382, 0.03248588740825653, -0.012445147149264812, 0.05071861669421196, 0.003024033270776272, 0.0023998506367206573, -0.07801298797130585, -0.005123485345393419, 0.0661044493317604, -0.14928053319454193], [0.06920148432254791, 0.09878935664892197, 0.07150784879922867, -0.018147367984056473, -0.03954385966062546, -0.14691118896007538, 0.002601912012323737, -0.12587890028953552, -0.05504951253533363, 0.15061956644058228, -0.07684758305549622, -0.08012950420379639, 0.004214767832309008, -0.022927578538656235, 0.03626024350523949, -0.017844323068857193, -0.05800524726510048, -0.04258526489138603, -0.10674702376127243, 0.07977557182312012, 0.06954140216112137, 0.09381280094385147, 0.20332930982112885, 0.13605163991451263, -0.05861391872167587, 0.03100229799747467, -0.10567909479141235, -0.08029870688915253, -0.2003735601902008, -0.12883694469928741, -0.10618598759174347, 0.0455206073820591, -0.05577849969267845, 0.04262004420161247, -0.19922950863838196, -0.10823319852352142, 0.0028021459002047777, -0.06693136692047119, -0.09849223494529724, -0.14857684075832367, -0.07339712977409363, 0.017531711608171463, -0.14586402475833893, 0.03703981265425682, 0.13547134399414062, -0.012798437848687172, 0.30075088143348694, -0.08370630443096161, -0.20065930485725403, -0.11705921590328217, -0.09158333390951157, 0.08832552284002304, -0.06205194443464279, -0.14634643495082855, 0.029540298506617546, -0.03512560576200485, -0.024802057072520256, 0.07193052023649216, -0.053445473313331604, 0.010710971429944038, 0.061886128038167953, 0.02706304006278515, -0.053642138838768005, -0.02693265490233898], [-0.041569095104932785, 0.03778776526451111, 0.04423976317048073, -0.03972207009792328, 0.02171015553176403, 0.04718847572803497, 0.017438532784581184, 0.06880537420511246, 0.017993267625570297, 0.06966810673475266, -0.07952053099870682, 0.06218279153108597, 0.03781697526574135, -0.09398139268159866, -0.02900405414402485, 0.018775980919599533, -0.15684212744235992, -0.0496751144528389, -0.033645257353782654, -0.03857749328017235, 0.025614183396100998, -0.07970254123210907, -0.11995602399110794, -0.060447439551353455, -0.01684815064072609, -0.10774599760770798, 0.0922422707080841, -0.11846421658992767, 0.06755077838897705, 0.10839506983757019, 0.007168902549892664, -0.1212918758392334, -0.04509182274341583, -0.043513402342796326, -0.002457214053720236, -0.015291724354028702, 0.009567858651280403, 0.007410624995827675, 0.060373757034540176, -0.08103006333112717, 0.05917631462216377, -0.08535166829824448, 0.08830902725458145, -0.06748876720666885, 0.1374596357345581, 0.008590617217123508, -0.05259687826037407, -0.03665025532245636, -0.09061579406261444, 0.07711413502693176, 0.04253653436899185, 0.12605063617229462, 0.13967804610729218, 0.0057732705026865005, -0.04977358505129814, -0.011689688079059124, -0.07031028717756271, 0.051703955978155136, 0.09814227372407913, 0.05296020582318306, 0.15127123892307281, 0.06650268286466599, 0.02085602469742298, 0.008287171833217144], [0.08902648091316223, 0.09093077480792999, 0.02210875414311886, 0.05119336023926735, -0.006907692179083824, -0.0024064392782747746, -0.05220988020300865, -0.053470250219106674, -0.10140658169984818, -0.06595919281244278, 0.05147046595811844, -0.00624882522970438, -0.03528584539890289, 0.10229797661304474, -0.14010241627693176, 0.07265874743461609, -0.0916644036769867, 0.06945587694644928, -0.06948202103376389, 0.00889432244002819, 0.03078535944223404, -0.16225822269916534, 0.0380452461540699, -0.0013387762010097504, -0.14497120678424835, 0.06914766877889633, -0.14308007061481476, 0.009731389582157135, -0.07651937007904053, 0.06563471257686615, 0.0024366837460547686, -0.0357307493686676, -0.020841769874095917, -0.16446617245674133, 0.0008598101558163762, -0.04021226987242699, -0.07153083384037018, 0.03917032480239868, -0.08013910800218582, -0.05496862530708313, 0.000622851075604558, 0.09795738756656647, 0.05892321839928627, -0.09216329455375671, 0.063499815762043, 0.09514414519071579, -0.1486395001411438, 0.11817414313554764, -0.0011594301322475076, 0.02552667260169983, -0.16241396963596344, -0.07734688371419907, -0.009909708052873611, -0.08217886090278625, -0.016956783831119537, 0.02250862307846546, 0.01882210746407509, 0.033661890774965286, -0.08313903212547302, -0.08074697852134705, 0.08946987241506577, -0.0889417827129364, 0.03334558382630348, -0.033374641090631485], [-0.03140311688184738, -0.00047574768541380763, -0.05581187084317207, -0.11426252126693726, -0.06613852828741074, 0.14841006696224213, -0.039450496435165405, -0.10813559591770172, -0.11898154765367508, 0.09450593590736389, -0.02935870736837387, -0.06404418498277664, 0.07219769060611725, 0.11962422728538513, -0.07247263193130493, 0.045924797654151917, -0.03912440687417984, 0.022042550146579742, 0.022599609568715096, -0.046350013464689255, -0.13119035959243774, -0.08046407252550125, -0.07319242507219315, -0.0376431904733181, -0.08033329993486404, -0.10973022878170013, -0.11845550686120987, -0.04431639984250069, -0.06875976920127869, -0.03233582153916359, 0.04737067595124245, -0.12394789606332779, -0.061907269060611725, -0.03247438743710518, -0.021283859387040138, 0.06868160516023636, -0.026682304218411446, 0.02194591984152794, 0.11419446766376495, 0.07243122160434723, -0.1583538055419922, 0.09156753867864609, 0.1279442310333252, -0.02235647663474083, -0.039584044367074966, -0.03522923216223717, 0.017899058759212494, 0.07782343775033951, -0.11060883849859238, 0.10103793442249298, -0.020502811297774315, -0.008353324607014656, -0.03863385692238808, -0.08541759103536606, 0.045883145183324814, -0.0894855335354805, -0.04480448737740517, 0.04482266306877136, -0.09751711040735245, -0.110836923122406, -0.041886236518621445, 0.02665780298411846, 0.03572060167789459, 0.02565840259194374], [0.0685265064239502, -0.052782557904720306, -0.11361197382211685, -0.01892053708434105, -0.10727560520172119, 0.0719524398446083, -0.13412518799304962, -0.03168616443872452, -0.1435365229845047, -0.05338645353913307, -0.13563236594200134, 0.03707446902990341, -0.11457978188991547, 0.03599821776151657, 0.06708406656980515, -0.13227131962776184, -0.03784872964024544, -0.050524964928627014, -0.035842087119817734, -0.025691859424114227, 0.04068461060523987, -0.0443827249109745, 0.08044064044952393, 0.04378478229045868, 0.014737710356712341, -0.100506491959095, 0.021901145577430725, 0.027718616649508476, 0.034852564334869385, -0.05910250544548035, 0.07332490384578705, 0.011025923304259777, 0.09277280420064926, 0.04833686351776123, -0.005998703185468912, -0.04149652644991875, 0.008663827553391457, -0.06174193695187569, 0.04589185491204262, 0.02980438433587551, -0.08434870839118958, 0.07618414610624313, -0.056289587169885635, 0.022608302533626556, 0.021533191204071045, 0.009637328796088696, -0.06135588139295578, 0.047719117254018784, 0.017610542476177216, -0.05858486518263817, 0.017610035836696625, 0.00014378735795617104, -0.010600659996271133, 0.07453668117523193, 0.016560841351747513, 0.08426079899072647, 0.036354292184114456, -0.08924829959869385, 0.0076492237858474255, 0.004782326053828001, -0.03775310143828392, 0.10674821585416794, 0.10659167915582657, -0.024138877168297768], [0.06778205186128616, 0.03567628934979439, -0.03021937608718872, -0.06371006369590759, -0.11297240853309631, -0.03936872258782387, 0.05807190388441086, 0.06071566045284271, -0.11768215894699097, 0.09192925691604614, 0.03515025973320007, 0.043070580810308456, -0.0787268728017807, 0.057631611824035645, 0.028827007859945297, -0.14200522005558014, -0.14793016016483307, -0.10824885219335556, 0.05579020828008652, -0.03329797089099884, 0.0023894545156508684, -0.10102329403162003, 0.015450673177838326, -0.027528101578354836, 0.016718797385692596, 0.03720145672559738, 0.06289250403642654, 0.0315772220492363, -0.12449421733617783, 0.03136897832155228, 0.09676531702280045, -0.009653166867792606, 0.02337971143424511, 0.034229665994644165, 0.025541633367538452, 0.029095420613884926, 0.06435006856918335, 0.05357234925031662, -0.10280358046293259, -0.11956571787595749, 0.015315579250454903, 0.13487358391284943, 0.06472442299127579, -0.10631327331066132, 0.07731977850198746, -0.04926413670182228, -0.06110340356826782, -0.07439245283603668, -0.008983924984931946, -0.037662941962480545, -0.053989045321941376, -0.05687664449214935, 0.10426833480596542, 0.0038936797063797712, 0.04675683379173279, -0.0004085498221684247, -0.07603645324707031, -0.057530950754880905, -0.14029499888420105, -0.0821026936173439, 0.08275821059942245, 0.11531827598810196, -0.007362091448158026, -0.08160300552845001], [0.08445379883050919, 0.024607624858617783, -0.04156920686364174, -0.0409892275929451, 0.07591823488473892, 0.03972058743238449, -0.04257853701710701, -0.10443450510501862, -0.13209164142608643, -0.0016825421480461955, 0.06981901824474335, 0.0023595457896590233, -0.13783468306064606, -0.09002450853586197, 0.028680482879281044, 0.04500265419483185, -0.037070464342832565, -0.0573219358921051, -0.05758069083094597, -0.09244301170110703, -0.0276617594063282, 0.08508193492889404, -0.05569791421294212, -0.04679056257009506, -0.08088421821594238, 0.02027059718966484, 0.07128360867500305, -0.06326017528772354, -0.03129976987838745, 0.1106271743774414, 0.1196809709072113, -0.09165005385875702, -0.0721081867814064, 0.1145172268152237, -0.04997754096984863, 0.020386675372719765, -0.05946657806634903, -0.0689861997961998, -0.06826505064964294, -0.12347067147493362, -0.07068939507007599, -0.05532418563961983, -0.0010685727465897799, -0.09308352321386337, -0.02652580663561821, -0.044811468571424484, 0.01386634074151516, -0.07198213785886765, 0.0400860570371151, -0.013186809606850147, -0.12476420402526855, -0.005768600385636091, -0.07780533283948898, -0.05662408471107483, -0.04628155380487442, 0.0821501836180687, 0.06099547818303108, 0.12076830118894577, -0.04494136944413185, -0.06161219999194145, -0.08912292122840881, -0.08223505318164825, 0.056414760649204254, 0.028479037806391716], [-0.05374680459499359, 0.032670702785253525, 0.0334857702255249, -0.05683485046029091, -0.10189683735370636, 0.13551196455955505, -0.07738729566335678, 0.02360592782497406, 0.03545065224170685, 0.010120529681444168, 0.041006870567798615, -0.00300802243873477, 0.015226957388222218, 0.09838905930519104, 0.013380150310695171, 0.09623373299837112, -0.0755385085940361, -0.012750127352774143, 0.120698943734169, 0.08931916952133179, -0.1525181531906128, -0.011253721080720425, -0.005272501148283482, -0.06884704530239105, 0.06371873617172241, -0.12500521540641785, -0.054643068462610245, -0.08908135443925858, -0.0010878497269004583, 0.08587700128555298, 0.029723461717367172, -0.041936419904232025, 0.10320728272199631, 0.007038881070911884, -0.0444907546043396, -0.05552969127893448, 0.013760627247393131, 0.04660314694046974, -0.05993150547146797, 0.07591225206851959, -0.05107511579990387, -0.04170822724699974, 0.02624107152223587, -0.0523160919547081, -0.05321681872010231, 0.029094748198986053, 0.07659859210252762, 0.006517517846077681, 0.022968962788581848, -0.004653790965676308, -0.09170924127101898, 0.016203494742512703, -0.09664996713399887, 0.06083369255065918, -0.013233086094260216, -0.04673350602388382, -0.03501637279987335, -0.012814450077712536, -0.011663728393614292, -0.024577125906944275, 0.07834035158157349, 0.11390004307031631, -0.0447467677295208, -0.08951368182897568], [-0.08410857617855072, 0.08025608211755753, 0.06082582101225853, 0.014964193105697632, 0.00450788764283061, -0.0014146972680464387, -0.09459426999092102, 0.008430900983512402, 0.01938038319349289, -0.11968643218278885, 0.003983875270932913, -0.07144207507371902, -0.030195455998182297, -0.01994488015770912, 0.08215905725955963, -0.09125975519418716, -0.031462132930755615, -0.035197339951992035, -0.011247100308537483, -0.025527140125632286, 0.06581124663352966, -0.13105672597885132, -0.11618651449680328, -0.05635255202651024, 0.0229775570333004, 0.025788135826587677, -0.12563753128051758, -0.09026200324296951, 0.03773193806409836, -0.004844614304602146, 0.004380320198833942, 0.09221310168504715, 0.03328489139676094, -0.05892369523644447, -0.061953067779541016, -0.02446593903005123, 0.1013394445180893, -0.025900624692440033, 0.018240056931972504, 0.037493787705898285, -0.04200603440403938, 0.10600584745407104, 0.012512237764894962, -0.010028553195297718, 0.14140477776527405, -0.05989743024110794, 0.04425082355737686, 0.10665284097194672, 0.01368465181440115, -0.052941907197237015, -0.09587112069129944, -0.006134586408734322, 0.008240279741585255, 0.01870686002075672, -0.11633888632059097, 0.01604890450835228, -0.009368075989186764, 0.09303246438503265, 0.027707872912287712, -0.059062227606773376, -0.12622523307800293, -0.08079428225755692, -0.05249906703829765, 0.07881224900484085], [-0.020428959280252457, -0.12537391483783722, -0.08145389705896378, 0.08939700573682785, 0.08454291522502899, 0.08459267765283585, 0.07430998980998993, 0.03403330594301224, -0.002545442432165146, -0.13696150481700897, -0.031187649816274643, -0.0757366195321083, 0.04631742835044861, 0.06502614915370941, 0.046615127474069595, -0.060907360166311264, -0.07370012253522873, -0.04197567328810692, 0.066093310713768, -0.010874972678720951, 0.07379008084535599, -0.029583780094981194, 7.19250674592331e-05, -0.107993945479393, -0.043214645236730576, 0.05079496651887894, 0.08680630475282669, -0.055754587054252625, 0.08019483834505081, 0.049127932637929916, 0.03494436293840408, -0.08816328644752502, -0.06570953130722046, 0.0013618140947073698, 0.0801306739449501, -0.09845752269029617, 0.017481867223978043, -0.10214784741401672, 0.02366027608513832, -0.08755998313426971, 0.08519156277179718, 0.09640950709581375, 0.0070444997400045395, -0.08750662207603455, -0.05635973438620567, 0.001032646163366735, -0.15250608325004578, -0.0057978141121566296, 0.09720224142074585, 0.008034168742597103, 0.08780036121606827, -0.030796019360423088, -0.059613168239593506, 0.0012915355619043112, -0.10235648602247238, 0.03636091202497482, -0.03361757472157478, -0.07118058949708939, 0.009740322828292847, 0.04521596431732178, 0.03544891998171806, -0.07306186109781265, 0.02532910741865635, 0.019210681319236755], [0.06583897769451141, -0.017369547858834267, 0.08553025126457214, -0.043509356677532196, 0.0287056602537632, -0.021896779537200928, 0.06499971449375153, -0.05016672611236572, 0.0549020916223526, -0.13091635704040527, -0.1238149031996727, 0.06780825555324554, 0.04898756369948387, 0.0806259885430336, -0.05233096703886986, 0.0070357252843678, -0.05412589758634567, -0.080367311835289, 0.15756025910377502, 0.029742246493697166, -0.061764124780893326, 0.02668214775621891, -0.11069747805595398, 0.0051403106190264225, -0.019865816459059715, -0.08944859355688095, 0.044472191482782364, 0.059380751103162766, 0.05527423694729805, 0.010985826142132282, 0.03703811764717102, -0.05071239545941353, -0.10588891059160233, 0.06559975445270538, 0.029393885284662247, 0.013909770175814629, 0.10071055591106415, -0.0879804939031601, -0.09100073575973511, -0.03645457327365875, 0.11220985651016235, -0.07548298686742783, -0.07408656924962997, -0.015088836662471294, 0.049516238272190094, 0.11825864762067795, 0.06794179230928421, 0.09248899668455124, -0.04276537522673607, -0.03100522793829441, 0.050575342029333115, 0.06885967403650284, 0.05832497403025627, -0.044562190771102905, -0.0678083524107933, -0.0891779214143753, -0.052181392908096313, 0.1682351976633072, 0.09911821037530899, 0.01377839781343937, -0.08537805080413818, -0.050328392535448074, -0.08727015554904938, -0.0664919763803482], [-0.12559792399406433, -0.08206376433372498, -0.0026595457457005978, -0.11591753363609314, -0.10893811285495758, 9.182243957184255e-06, -0.06353089213371277, 0.0825108215212822, 0.0273598600178957, -0.0659661814570427, 0.1225600466132164, 0.015905680134892464, -0.009045747108757496, -0.06832396984100342, -0.11306742578744888, 0.06638617813587189, -0.08645231276750565, -0.024184737354516983, 0.010068659670650959, 0.13496965169906616, 0.050241775810718536, -0.03986942768096924, -0.20947906374931335, -0.128581702709198, -0.016680624336004257, -0.09062647819519043, -0.023299401625990868, -0.07681097835302353, -0.12526807188987732, -0.026100579649209976, 0.11426425725221634, -0.1440894454717636, -0.0026671418454498053, -0.10550772398710251, -0.07755506038665771, -0.18057246506214142, -0.00034084077924489975, -0.016577405855059624, 0.061974961310625076, 0.019147032871842384, 0.03901087865233421, -0.03889000043272972, -0.1269821673631668, -0.013459673151373863, -0.11501367390155792, -0.06958964467048645, 0.0752144455909729, 0.030728809535503387, -0.05676581710577011, 0.04720297083258629, 0.058347348123788834, -0.08957675844430923, 0.07252608239650726, -0.02777073346078396, 0.017512528225779533, -0.11119549721479416, -0.052334222942590714, 0.1635439544916153, 0.05998669192194939, 0.11403962224721909, 0.05301650986075401, 0.0053023165091872215, -0.1056303158402443, -0.024149615317583084], [0.012928260490298271, -0.04438088461756706, -0.2304743379354477, -0.04059114307165146, 0.07497560977935791, -0.0950624868273735, -0.04946237802505493, 0.012418145313858986, 0.06340139359235764, -0.019097864627838135, -0.004498171154409647, -0.11228210479021072, 0.12922456860542297, 0.016317980363965034, -0.06477957218885422, 0.0023526086006313562, -0.1597846895456314, -0.03479084372520447, 0.07962117344141006, 0.0779363363981247, -0.029945461079478264, 0.0027176570147275925, 0.015052787959575653, -0.05462320148944855, -0.09718448668718338, 0.015070753172039986, 0.15035578608512878, -0.05915398895740509, -0.08459047973155975, 0.12093270570039749, 0.027345124632120132, -0.10669442266225815, 0.00397621002048254, 0.031021729111671448, 0.08724485337734222, -0.05583130568265915, 0.10013909637928009, 0.039289698004722595, -0.0399370938539505, -0.07069262862205505, -0.11539508402347565, -0.0350492000579834, -0.038663435727357864, 0.03362981602549553, -0.08238155394792557, -0.0045888242311775684, -0.126216858625412, 0.0020667510107159615, 0.202043816447258, -0.058274656534194946, 0.1203400269150734, 0.07181011140346527, 0.27055978775024414, 0.05069858208298683, -0.10789493471384048, -0.08813431859016418, -0.035876527428627014, 0.18609517812728882, 0.08713054656982422, 0.3557157516479492, -0.026661913841962814, 0.06990790367126465, -0.02604670077562332, -0.12274455279111862], [0.0012878283159807324, -0.019910549744963646, -0.10309802740812302, -0.06342622637748718, 0.10136626660823822, -0.13596652448177338, -0.007680763490498066, -0.04988016560673714, -0.016025196760892868, 0.03502039238810539, 0.03943087160587311, 0.026963211596012115, -0.18166857957839966, -0.14360779523849487, 0.07554321736097336, -0.0055332547053694725, -0.006363375578075647, -0.1795245260000229, -0.06335072219371796, 0.05570610240101814, -0.01289075706154108, 0.11589713394641876, 0.1437491476535797, -0.03286830335855484, -0.0070535182021558285, 0.09949355572462082, -0.04061296582221985, -0.020167600363492966, 0.08669368922710419, -0.018689490854740143, -0.17686520516872406, -0.18878750503063202, -0.06639444082975388, -0.06297672539949417, -0.14824756979942322, 0.051494039595127106, -0.20823366940021515, -0.06836283951997757, 0.2717862129211426, -0.26216113567352295, -0.20265546441078186, -0.14951638877391815, 0.1604302078485489, 0.12586291134357452, 0.15321122109889984, 0.07748875766992569, 0.038519181311130524, 0.1112658828496933, 0.12810903787612915, 0.07711903750896454, 0.1311478465795517, -0.02059558406472206, 0.13377869129180908, 0.032346293330192566, -0.09423576295375824, -0.15932336449623108, -0.09005402028560638, 0.01779276877641678, 0.02552817016839981, 0.06651180237531662, -0.14063237607479095, -0.08557307720184326, 0.13961008191108704, 0.023002857342362404], [-0.19707618653774261, 0.004065650515258312, 0.04337981343269348, -0.2619580924510956, 0.0925120934844017, 0.051098816096782684, 0.17997224628925323, 0.020526545122265816, -0.035267703235149384, 0.04465847462415695, -0.07947944104671478, -0.08687957376241684, -0.03394956514239311, 0.09558842331171036, 0.030542362481355667, -0.013720343820750713, -0.009436187334358692, 0.04894573614001274, -0.1313134729862213, 0.18268908560276031, 0.046172406524419785, 0.08853127807378769, 0.16867980360984802, -0.0065435380674898624, -0.1071639358997345, 0.005905063822865486, -0.19419516623020172, 0.031093165278434753, 0.08045752346515656, 0.0729154571890831, -0.014279519207775593, -0.16023679077625275, -0.021964501589536667, -0.024788228794932365, 0.0853201150894165, 0.26337164640426636, -0.1298036277294159, 0.056629523634910583, -0.003127717413008213, -0.30832645297050476, -0.12305792421102524, -0.006777246482670307, 0.0174112468957901, 0.1356227844953537, 0.21496941149234772, -0.1290234923362732, 0.01794302836060524, 0.04989827424287796, 0.19455091655254364, 0.20862635970115662, 0.05858457460999489, 0.1045365110039711, 0.12967218458652496, 0.14316710829734802, -0.08497925847768784, -0.15394259989261627, -0.04958674684166908, -0.016373442485928535, -0.08184602856636047, 0.03838623687624931, -0.17670021951198578, 0.07373721152544022, -0.1472669541835785, 0.2235173135995865], [-0.05110038071870804, 0.01386973075568676, -0.19937960803508759, -0.3139684498310089, 0.2823525667190552, 0.09908423572778702, 0.23052723705768585, 0.1342121958732605, -0.14129658043384552, 0.03960232436656952, 0.07153008878231049, -0.1682923436164856, 0.0030757784843444824, 0.19846341013908386, -0.09636107832193375, 0.018845554441213608, -0.12313799560070038, -0.06794038414955139, 0.05213433876633644, 0.2465185821056366, 0.02438514120876789, 0.04083676263689995, 0.2666856050491333, 0.02439277619123459, -0.07159656286239624, 0.03906195983290672, 0.052874088287353516, -0.17017324268817902, -0.015043108724057674, 0.007531181909143925, 0.02025456912815571, -0.2589583992958069, 0.19077008962631226, -0.0819898471236229, 0.11624590307474136, 0.13112957775592804, -0.144446462392807, -0.040001533925533295, 0.06000158190727234, -0.18845456838607788, -0.09813366830348969, 0.08113624155521393, 0.20964506268501282, 0.11250004172325134, 0.16372397541999817, -0.03710798919200897, 0.13326992094516754, 0.06560563296079636, 0.12491442263126373, -0.03679662197828293, -0.030124569311738014, 0.09745878726243973, 0.06523988395929337, 0.06803341954946518, -0.042071253061294556, -0.13576771318912506, -0.08110395073890686, 0.09878562390804291, -0.07058199495077133, 0.09719692170619965, -0.10099899023771286, 0.07976078242063522, -0.08293282240629196, 0.10227840393781662], [-0.1157364472746849, 0.20255465805530548, -0.3298453986644745, -0.16710329055786133, 0.10814841091632843, 0.11434876173734665, 0.26450178027153015, 0.13131441175937653, -0.14241264760494232, 0.1654142588376999, 0.10014410316944122, 0.00727732153609395, -0.08184646815061569, 0.07127967476844788, -0.08585374057292938, -0.038266029208898544, -0.12257364392280579, -0.05168590694665909, 0.09757272154092789, 0.041276685893535614, -0.06263267993927002, 0.03169125318527222, 0.06075175851583481, 0.015856489539146423, 0.039471909403800964, -0.038587212562561035, -0.06898201256990433, -0.02150343544781208, -0.05517261102795601, 0.08102498948574066, -0.02058374136686325, -0.09728281199932098, 0.2038242220878601, -0.07658404111862183, -0.2001170516014099, 0.12236598134040833, -0.12451530992984772, 0.18901753425598145, -0.042105451226234436, -0.2265075445175171, 0.0865570530295372, 0.07993163168430328, 0.13398247957229614, 0.0948476493358612, 0.206577867269516, 0.03390398994088173, -0.01901683770120144, -0.05758059024810791, -0.04665135592222214, -0.15486210584640503, -0.20666402578353882, 0.0852803960442543, -0.17709460854530334, 0.14822620153427124, -0.1344570517539978, -0.14549754559993744, -0.09473593533039093, -0.17272038757801056, -0.2521945834159851, -0.15663684904575348, -0.07593890279531479, -0.11071492731571198, -0.051552124321460724, -0.06434755027294159], [0.12428613752126694, 0.020870771259069443, -0.2737886905670166, -0.05589745193719864, 0.02201683633029461, 0.2010468989610672, 0.3467506468296051, 0.04617826268076897, 0.01776634156703949, 0.017404338344931602, 0.13485851883888245, 0.03296813368797302, 0.13765910267829895, -0.011002307757735252, -0.06210336461663246, 0.17653489112854004, -0.16342861950397491, -0.13911691308021545, 0.11371103674173355, -0.08827430009841919, -0.04170991852879524, -0.13612160086631775, 0.018605655059218407, -0.05270589888095856, -0.12811288237571716, -0.011361259035766125, 0.14592337608337402, -0.1605071723461151, 0.0750591978430748, -0.20952947437763214, 0.03576325625181198, -0.0044369567185640335, 0.17929580807685852, -0.1798553466796875, 0.027469752356410027, 0.022321010008454323, 0.03033369593322277, 0.06689087301492691, 0.10083877295255661, -0.18480244278907776, 0.06493455916643143, -0.01626521535217762, 0.17990458011627197, 0.03560137003660202, 0.17729651927947998, -0.09915496408939362, 0.0424165241420269, 0.04368672892451286, -0.1349019855260849, 0.028970567509531975, -0.24124425649642944, -0.0358794741332531, -0.07044616341590881, 0.1158844605088234, -0.05568348988890648, -0.043075405061244965, 0.06527409702539444, -0.2370871752500534, -0.14149583876132965, -0.058100439608097076, -0.044755224138498306, -0.058526571840047836, -0.04521460831165314, -0.053992919623851776], [-0.016950324177742004, 0.04271414875984192, -0.13902512192726135, -0.020361540839076042, 0.048011720180511475, 0.124797523021698, 0.1362132430076599, -0.05252666771411896, 0.017943065613508224, 0.12433947622776031, 0.16591767966747284, 0.07663664221763611, -0.005450093653053045, -0.14403490722179413, -0.08332550525665283, 0.11308440566062927, -0.06697037070989609, -0.09202037006616592, -0.08446578681468964, -0.05384641885757446, -0.027491813525557518, -0.03959574177861214, 0.19509071111679077, 0.02433365397155285, -0.019727051258087158, -0.011993443593382835, 0.03703790903091431, 0.06974366307258606, 0.13506367802619934, -0.2811870574951172, -0.10444073379039764, -0.05191588029265404, 0.004349694121629, -0.20754650235176086, 0.10025422275066376, 0.1948584020137787, -0.057777002453804016, 0.04144764319062233, 0.0883089154958725, -0.13644972443580627, -0.029391510412096977, -0.17872552573680878, -0.05798131972551346, 0.018231667578220367, 0.12938393652439117, -0.09092991054058075, 0.317702054977417, 0.09956497699022293, -0.004178046248853207, -0.03481306508183479, -0.023528045043349266, -0.04618755355477333, 0.05279872566461563, 0.0799792930483818, 0.05020350217819214, -0.03434224799275398, 0.04973936825990677, -0.27170321345329285, 0.03311896696686745, 0.05540597811341286, -0.12778519093990326, 0.0006982592749409378, 0.037343353033065796, -0.009256035089492798], [0.12893939018249512, -0.02017453871667385, -0.014264323748648167, -0.09109056740999222, -0.040825005620718, -0.06509975343942642, 0.18084745109081268, 0.06645149737596512, -0.014610795304179192, -0.06893094629049301, 0.0432816706597805, 0.006965551991015673, 0.09804698824882507, -0.2565690577030182, -0.16578620672225952, -0.08237595856189728, -0.051942016929388046, 0.009776712395250797, 0.035120829939842224, -0.03796662017703056, 0.18016451597213745, -0.09013736248016357, 0.20720961689949036, 0.00998523086309433, 0.003194571239873767, 0.0814235657453537, 0.15768904983997345, 0.05782176926732063, -0.11838734894990921, -0.17317935824394226, -0.08200725167989731, 0.0065950364805758, -0.07959950715303421, -0.06531078368425369, 0.0254736989736557, -0.1192975640296936, -0.057404037564992905, 0.05634647607803345, -0.07700791954994202, 0.028461119160056114, -0.0861789733171463, -0.21896560490131378, -0.0014057173393666744, -0.24164459109306335, -0.09114807844161987, -0.17123883962631226, 0.3945431709289551, 0.06908214092254639, -0.16792139410972595, 0.14323802292346954, -0.02050103060901165, -0.06356744468212128, 0.172173872590065, -0.027377383783459663, -0.05581364780664444, -0.037475645542144775, -0.051512930542230606, -0.08534743636846542, 0.024586571380496025, 0.18764816224575043, -0.09768267720937729, 0.014989705756306648, 0.07063235342502594, 0.02081884816288948], [-0.02071467600762844, -0.06009763479232788, 0.029287884011864662, -0.07863807678222656, -0.18685798346996307, -0.002171885222196579, 0.00929808896034956, -0.13621477782726288, -0.07258986681699753, 0.03899583965539932, 0.02053310163319111, 0.048373032361269, 0.0028133683372288942, -0.20390966534614563, -0.01939481310546398, -0.06486181169748306, -0.01306943129748106, -0.02163536660373211, 0.09753163158893585, 0.1040714830160141, 0.10199851542711258, -0.016927864402532578, 0.09279350936412811, 0.0094253309071064, -0.00925597082823515, 0.1408001035451889, 0.15488889813423157, 0.12646013498306274, 0.06556105613708496, -0.09692137688398361, 0.03678610175848007, -0.08585992455482483, -0.0330687053501606, 0.06380831450223923, 0.03247043862938881, 0.07064836472272873, 0.02392241731286049, -0.040165357291698456, -0.03188358247280121, -0.00017081209807656705, -0.05005832016468048, -0.08468169718980789, 0.052160561084747314, -0.06365077197551727, 0.10015078634023666, -0.11634894460439682, 0.3832893669605255, -0.09272278100252151, -0.15470077097415924, 0.14457620680332184, -0.08373550325632095, 0.06632021814584732, -0.11572732031345367, -0.06434965878725052, -0.18836644291877747, -0.12639908492565155, -0.060126762837171555, 0.09118987619876862, -0.07721719890832901, -0.1505136787891388, 0.018941769376397133, 0.07362861931324005, 0.0758553072810173, 0.029362516477704048], [0.04005707427859306, -0.10765783488750458, 0.07342448085546494, 0.03498420491814613, -0.0373283289372921, -0.16841810941696167, 0.13271518051624298, 0.019105276092886925, -0.049485813826322556, 0.18098360300064087, 0.04483385756611824, -0.22936560213565826, -0.038225069642066956, -0.03464473783969879, -0.10149585455656052, -0.08893931657075882, -0.009149882942438126, 0.041081514209508896, 0.07385024428367615, 0.11538900434970856, 0.09996074438095093, 0.03976387903094292, 0.08646231889724731, 0.0564240962266922, -0.0799400806427002, -0.036333803087472916, -0.1037224754691124, 0.1302417665719986, 0.005322511773556471, -0.06020904332399368, -0.12951703369617462, 0.03894350677728653, -0.08113282173871994, -0.2141450047492981, -0.10386266559362411, -0.01219068095088005, -0.13087181746959686, -0.08704608678817749, -0.09692644327878952, 0.029720094054937363, -0.08558624237775803, 0.10233552753925323, 0.1605253517627716, 0.02946135774254799, 0.25058209896087646, -0.03975225239992142, -0.010639960877597332, -0.022304285317659378, -0.041638556867837906, 0.009838070720434189, 0.09333490580320358, 0.03688212111592293, -0.005072405561804771, 0.06903093308210373, -0.180295929312706, -0.10865817964076996, 0.022625096142292023, -0.050476908683776855, -0.15586265921592712, -0.16650772094726562, 0.10593151301145554, 0.03489897772669792, -0.11022116243839264, 0.08853617310523987], [0.026586193591356277, -0.09426762908697128, 0.16106368601322174, 0.037342850118875504, -0.085540771484375, -0.08258899301290512, 0.08750342577695847, 0.04969659075140953, -0.04194122925400734, 0.07168787717819214, -0.06751489639282227, -0.029933562502264977, -0.16611610352993011, 0.03375775367021561, -0.1192699521780014, 0.0514509491622448, -0.10716411471366882, -0.12320993840694427, -0.008456511422991753, 0.014077705331146717, 0.07310672104358673, -0.05085776001214981, -0.02876093238592148, -0.17123036086559296, 0.07652778923511505, -0.0564473532140255, 0.005533635150641203, -0.06337378919124603, -0.10147908329963684, 0.011978581547737122, -0.13248686492443085, -0.08558245003223419, 0.040313269942998886, -0.02993098460137844, -0.19751223921775818, -0.006988523527979851, 0.012937880121171474, -0.008783459663391113, 0.1143011599779129, 0.008613801561295986, -0.10390496253967285, -0.16024698317050934, -0.12112689018249512, -0.04188370704650879, 0.16182467341423035, 0.0854932889342308, 0.03303102031350136, -0.01734837517142296, -0.06058027967810631, 0.04877842962741852, -0.0771382674574852, -0.03597255051136017, 0.09926632791757584, -0.05254370719194412, -0.06116104871034622, 0.05036606639623642, -0.006377973593771458, 0.07469504326581955, -0.09020491689443588, 0.007296606432646513, 0.06647420674562454, 0.03314348682761192, 0.015216466970741749, -0.07745639979839325], [-0.17112751305103302, 0.013753966428339481, 0.04967750236392021, -0.0777062326669693, 0.04640248045325279, -0.024366240948438644, 0.06217031925916672, -0.07095348834991455, -0.1288556307554245, 0.08640262484550476, 0.07657190412282944, 0.0020031703170388937, -0.1208772286772728, -0.004231391474604607, -0.08046051114797592, -0.04870821535587311, -0.02393685095012188, 0.07354259490966797, 0.05225520581007004, 0.1443096250295639, -0.0014179644640535116, 0.010685641318559647, -0.0014327694661915302, -0.033455874770879745, 0.004914851859211922, -0.05039171129465103, -0.021247919648885727, 0.05378090217709541, -0.08717493712902069, -0.0582515224814415, 0.007805209141224623, -0.16178317368030548, 0.09392216056585312, -0.06666427105665207, -0.02461407147347927, 0.08990690112113953, 0.06663557887077332, 0.04521341621875763, 0.06451856344938278, -0.07714083790779114, -0.08323298394680023, 0.07883934676647186, -0.010255514644086361, 0.07934325933456421, 0.0776536837220192, -0.08628397434949875, -0.04352912679314613, 0.06499576568603516, -0.13052986562252045, -0.11869985610246658, -0.04798831790685654, -0.00196459935978055, -0.04439045488834381, -0.015229124575853348, -0.07580163329839706, -0.12288806587457657, -0.04835381731390953, -0.001122020767070353, -0.14774620532989502, -0.08727662265300751, 0.14941710233688354, -0.041662923991680145, -0.025133294984698296, -0.002210877137258649], [-0.017179101705551147, 0.025030061602592468, -0.08378562331199646, 0.026970379054546356, -0.13287590444087982, 0.14545316994190216, 0.008545861579477787, -0.12360171973705292, -0.06721792370080948, -0.017510488629341125, -0.15888255834579468, -0.07980746775865555, -0.07845000922679901, 0.05959699675440788, -0.030948923900723457, -0.04140394926071167, -0.0051722899079322815, 0.07448001950979233, -0.028128234669566154, 0.04476195201277733, -0.07693712413311005, -0.09356088936328888, -0.12383557111024857, -0.011876991018652916, -0.06986749172210693, -0.13305525481700897, -0.02794525772333145, 3.3947704650927335e-05, 0.0802675411105156, -0.0769834816455841, -0.07241810858249664, 0.06752181053161621, -0.027013655751943588, 0.018206486478447914, -0.06851305067539215, 0.05769767239689827, 0.0019006880465894938, 0.06980761140584946, 0.02808469720184803, -0.12274734675884247, -0.11907122284173965, 0.07506868988275528, 0.06693261116743088, -0.05893554165959358, -0.1076105609536171, -0.14413873851299286, 0.07623349130153656, 0.020383888855576515, 0.04419662430882454, -0.02414933778345585, 0.0684036985039711, 0.03908870369195938, 0.03478818014264107, -0.12852567434310913, 0.11655359715223312, 0.03627563640475273, -0.06175278127193451, -0.05860041826963425, 0.08168034255504608, 0.04820413514971733, -0.0538320392370224, 0.11715910583734512, 0.06994176656007767, -0.07713015377521515], [-0.1588965505361557, 0.03636621683835983, -0.05367138981819153, -0.02202635630965233, -0.013418237678706646, -0.06647991389036179, -0.028683645650744438, 0.021875442937016487, -0.042961250990629196, -0.0627499595284462, -0.11492575705051422, -0.0707390233874321, -0.03760277479887009, 0.1193796694278717, 0.071968212723732, -0.11798269301652908, -0.01526329293847084, -0.04575207084417343, 0.10759902745485306, -0.09731652587652206, -0.04632997140288353, 0.05006951466202736, -0.14970916509628296, 0.016919340938329697, -0.06493525952100754, 0.06536932289600372, -0.05425599217414856, 0.012807479128241539, -0.06386677920818329, 0.014196744188666344, 0.045988935977220535, 0.03336404263973236, -0.005524327978491783, 0.10884362459182739, 0.0486564077436924, -0.07986181229352951, -0.039831239730119705, -0.06489599496126175, 0.08829227089881897, -0.09902186691761017, -0.08215419948101044, 0.06207834556698799, -0.06045610457658768, 0.09596024453639984, 0.058668095618486404, -0.04519470036029816, 0.020908553153276443, 0.12450981140136719, -0.11739084869623184, -0.09245725721120834, 0.019835853949189186, 0.008448107168078423, -0.08298204094171524, -0.08669289201498032, 0.018617738038301468, -0.045937735587358475, 0.0028291575144976377, 0.04438221827149391, -0.0538407564163208, 0.05034327507019043, 0.06834668666124344, 0.018070733174681664, 0.02110195904970169, -0.027776025235652924], [-0.11422006040811539, -0.08121749013662338, -0.03974664956331253, 0.030645158141851425, 0.009954423643648624, 0.014258534647524357, 0.10443750023841858, 0.0735388845205307, -0.013243336230516434, 0.02137535624206066, 0.07721549272537231, -0.06697253882884979, -0.1437346488237381, 0.10930544883012772, 0.0970647782087326, -0.03309711813926697, 0.049593571573495865, 0.06867139786481857, 0.11423654854297638, -0.044798437505960464, -0.1234944611787796, 0.1051764190196991, 0.059041980654001236, 0.002681738929823041, 0.03176429122686386, -0.12060929089784622, -0.009459339082241058, -0.10128023475408554, -0.1061345562338829, -0.08437347412109375, -0.066155344247818, -0.03822827339172363, -0.08782713860273361, -0.03177402913570404, 0.03301514685153961, -0.0071964627131819725, -0.09515582770109177, 0.009521041065454483, 0.038258716464042664, -0.019155966117978096, 0.016386792063713074, 0.12796516716480255, 0.1371288299560547, 0.0203660000115633, 0.014969352632761002, -0.03750551864504814, -0.13516153395175934, 0.034615516662597656, 0.0672277882695198, -0.06261975318193436, 0.05165555328130722, -0.052680402994155884, -0.09877494722604752, -0.0328245684504509, -0.13118335604667664, 0.0029515372589230537, -0.09761355817317963, 0.04367606341838837, 0.09132693707942963, 0.0442785918712616, -0.022486532106995583, 0.05809372663497925, 0.03871063143014908, -0.03889243304729462], [-0.06679366528987885, -0.023874862119555473, -0.11605565249919891, 0.036550555378198624, -0.10468079149723053, 0.07240878790616989, 0.10462160408496857, 0.10237962007522583, -0.01151363831013441, -0.057836104184389114, -0.14804144203662872, -0.046812694519758224, 0.018860431388020515, -0.0988699272274971, -0.05478311702609062, -0.026829902082681656, 0.043846338987350464, 0.08209370821714401, 0.0043758610263466835, 0.02214089035987854, -0.09772651642560959, -0.11047250777482986, -0.11846134066581726, 0.030628738924860954, -0.15313184261322021, -0.006031258963048458, -0.03783390298485756, 0.020662466064095497, -0.07278016954660416, -0.025565095245838165, 0.12624862790107727, -0.048550963401794434, 0.028490768745541573, 0.028930116444826126, -0.038513101637363434, 0.07520073652267456, -0.06756201386451721, -0.03942693769931793, 0.04314269497990608, -0.004848090931773186, 0.08175089210271835, -0.04075847938656807, 0.11155979335308075, 0.040148697793483734, 0.06379333883523941, -0.057136982679367065, -0.05919705331325531, -0.002375195501372218, 0.04396246001124382, -0.011085890233516693, 0.07199320197105408, 0.1221337541937828, -0.05878027528524399, 0.005650425795465708, 0.03299223259091377, 0.06650551408529282, -0.019192717969417572, 0.09619484096765518, 0.04630857706069946, -0.039971668273210526, 0.059109412133693695, -0.0509212464094162, 0.032763104885816574, -0.0597551204264164], [-0.051011089235544205, 0.013688669539988041, -0.010513398796319962, -0.03771209716796875, -0.051002997905015945, -0.06401051580905914, 0.003010985441505909, -0.04406150057911873, -0.016705144196748734, 0.09581754356622696, -0.19338734447956085, 0.07184340059757233, -0.12764856219291687, -0.042835820466279984, -0.07949952781200409, -0.012227644212543964, -0.08331969380378723, -0.05957803502678871, 0.10481666028499603, -0.026709871366620064, -0.14471882581710815, 0.0561683364212513, -0.1649036556482315, 0.10394644737243652, -0.032352715730667114, -0.042623914778232574, -0.08741350471973419, -0.009599188342690468, -0.1469186395406723, -0.0787692666053772, -0.04715551435947418, 0.07314348965883255, -0.039422620087862015, 0.07062225788831711, -0.09083638340234756, 0.06713173538446426, 0.07022212445735931, -0.07802018523216248, -0.0006031139055266976, 0.07111967355012894, 0.09918277710676193, -0.044735636562108994, -0.026814095675945282, -0.017684563994407654, -0.02565024048089981, 0.0988750234246254, -0.05151927471160889, 0.12743590772151947, 0.0011843147221952677, 0.02185191959142685, 0.003337699919939041, -0.07432178407907486, -0.004939415492117405, -0.06911256164312363, 0.186797633767128, 0.0004737693234346807, -0.09617742896080017, 0.1226554661989212, -0.005743894726037979, 0.004502820782363415, 0.026901930570602417, -0.06975851953029633, -0.08628589659929276, -0.12285523861646652], [0.048094771802425385, 0.018571453168988228, 0.17804491519927979, -0.06170138716697693, -0.0020063817501068115, -0.031059404835104942, -0.022063584998250008, 0.03328318893909454, -0.10460697114467621, -0.007122808136045933, -0.08940120786428452, -0.07032103836536407, 0.07094008475542068, -0.007452265825122595, -0.03019747883081436, 0.017214657738804817, -0.10012470930814743, -0.10381961613893509, 0.05024997144937515, -0.09594015777111053, -0.1109621673822403, 0.072562575340271, 0.06455012410879135, -0.0008615200640633702, 0.03417782858014107, -0.008064045570790768, 0.05522198975086212, 0.02488527074456215, -0.002122703706845641, 0.03151364624500275, 0.02865523286163807, -0.053508248180150986, -0.010663332417607307, -0.09695767611265182, -0.10630997270345688, 0.03176382556557655, 0.015384538099169731, -0.028927896171808243, 0.03687938302755356, 0.11784612387418747, 0.038702256977558136, 0.004917451646178961, 0.05033645033836365, 0.08704797923564911, -0.0052923643961548805, -0.008656262420117855, 0.06919802725315094, -0.018110642209649086, 0.13310176134109497, 0.05197751149535179, 0.07493665814399719, -0.07439735531806946, 0.062476009130477905, 0.053244441747665405, 0.16288265585899353, -0.06782449781894684, 0.06281387805938721, -0.09388768672943115, -0.14259076118469238, -0.019416997209191322, -0.09971194714307785, 0.11881384998559952, 0.09621371328830719, 0.011448878794908524], [0.006847546435892582, 0.08251173049211502, 0.0033705485984683037, -0.07928492873907089, -0.09068599343299866, 0.06081991270184517, -0.05576126277446747, 0.07286740094423294, 0.0029158396646380424, 0.04348953813314438, 0.06148170307278633, -0.06720582395792007, -0.0126875601708889, -0.07362022250890732, 0.09138480573892593, 0.06512757390737534, -0.04127679765224457, -0.16691464185714722, -0.011026907712221146, 0.07122970372438431, -0.03553369268774986, 0.07081753760576248, 0.00879645999521017, 0.06002951040863991, -0.10204453021287918, -0.08108479529619217, 0.07065832614898682, -0.20213806629180908, -0.003918755333870649, -0.08994684368371964, -0.011260650120675564, 0.06808267533779144, -0.04380786046385765, -0.07536273449659348, -0.018149150535464287, -0.07895337045192719, -0.1052815318107605, -0.13422656059265137, 0.02394874393939972, -0.05254849046468735, 0.10125254094600677, -0.021778274327516556, -0.023306887596845627, -0.0006778480601496994, -0.012564673088490963, 0.04959838092327118, 0.12477300316095352, 0.08552394062280655, 0.1795860081911087, -0.022532517090439796, 0.009520748630166054, -0.0701313391327858, 0.0472145602107048, -0.09218349307775497, -0.01976688578724861, -0.07274524122476578, 0.06673035025596619, 0.21397346258163452, 0.10498484969139099, -0.03237207606434822, 0.11983904242515564, -0.028001589700579643, -0.13771426677703857, -0.09659457206726074], [-0.1519670933485031, 0.05109480395913124, -0.13597898185253143, -0.048877544701099396, -0.002748965285718441, -0.17641018331050873, 0.016797179356217384, 0.1733403205871582, -0.16284248232841492, -0.03216749057173729, -0.07003537565469742, -0.11393340677022934, 0.05607081577181816, 0.03787088766694069, -0.1396218240261078, 0.0023950734175741673, 0.09871963411569595, -0.01632380299270153, 0.06168782338500023, 0.012345152907073498, 0.014727788977324963, 0.07189255952835083, -0.04436499625444412, -0.14565159380435944, -0.03455686941742897, -0.03696192800998688, 0.08353423327207565, -0.08067550510168076, -0.0860181376338005, 0.059860311448574066, -0.10227786004543304, -0.13982544839382172, -0.09274063259363174, -0.07099432498216629, -0.16457627713680267, 0.03815584257245064, -0.008026049472391605, 0.0966351330280304, -0.09848792105913162, -0.05418158695101738, -0.027097273617982864, -0.11336863040924072, -0.025967007502913475, -0.07897695899009705, -0.12848439812660217, -0.10947899520397186, -0.1598348766565323, -0.07592366635799408, 0.24083341658115387, -0.10370861738920212, 0.1583154946565628, -0.16500604152679443, 0.2479225993156433, 0.03306243196129799, -0.16889089345932007, -0.07399571686983109, -0.09011001139879227, 0.07441599667072296, 0.0990515798330307, 0.1617429554462433, 0.11950193345546722, -0.09407522529363632, 0.14667077362537384, -0.08120358735322952], [-0.08487008512020111, 0.07740219682455063, 0.043435946106910706, -0.294168084859848, 0.1257859468460083, -0.16007231175899506, -0.24775588512420654, 0.09986075758934021, -0.04977744445204735, -0.013117112219333649, -0.030650462955236435, -0.09187428653240204, -0.16793012619018555, 0.08929222077131271, -0.04500319063663483, -0.021847926080226898, 0.030256519094109535, 0.034045882523059845, 0.02445382997393608, 0.20792585611343384, -0.1231108009815216, -0.04854196310043335, -0.13583408296108246, -0.17573736608028412, 0.08911211043596268, 0.17262804508209229, 0.06375490128993988, -0.018871022388339043, -0.08319123089313507, 0.014640011824667454, -0.1614135503768921, -0.04710058867931366, 0.109100840985775, -0.10813552886247635, -0.07391245663166046, 0.10000473260879517, 0.12435656040906906, 0.05509581416845322, 0.22716093063354492, -0.02719947136938572, -0.04755876958370209, -0.10638471692800522, 0.0588928647339344, 0.005314818117767572, 0.007630095351487398, -0.15574291348457336, 0.1055106446146965, -0.09175119549036026, 0.1958870142698288, -0.2216562032699585, 0.10823901742696762, -0.08022647351026535, 0.001679601613432169, 0.16764186322689056, -0.15278393030166626, 0.04091079905629158, -0.0455990768969059, -0.04733416810631752, -0.07103826105594635, 0.3154025375843048, 0.020508605986833572, 0.10301382839679718, 0.059826768934726715, 0.012843928299844265], [-0.12944252789020538, -0.08586107939481735, 0.2580737769603729, -0.19440612196922302, 0.2018945962190628, -0.1106400191783905, 0.1846117377281189, 0.26962435245513916, -0.13540463149547577, -0.12355804443359375, 0.00687386142089963, -0.17291392385959625, -0.10071120411157608, 0.002831818303093314, -0.03793209418654442, 0.06185857951641083, 0.08669497817754745, 0.08469623327255249, 0.022233741357922554, -0.002637644298374653, -0.05599382892251015, -0.020521488040685654, 0.13943704962730408, 0.13147267699241638, -0.1535283774137497, 0.025692587718367577, 0.1027701199054718, 0.02087855152785778, 0.14045216143131256, 0.04885215684771538, -0.03151199594140053, -0.0977051630616188, 0.04530114680528641, -0.16537116467952728, 0.006810272112488747, 0.09025489538908005, -0.14538510143756866, 0.14425122737884521, -0.03617699444293976, -0.14342562854290009, -0.1360923945903778, -0.11983387172222137, 0.19045723974704742, 0.026102084666490555, 0.1189696341753006, -0.08880213648080826, -0.04683617129921913, -0.02183597721159458, 0.39767250418663025, -0.02186935767531395, 0.03371846675872803, 0.10185862332582474, -0.05735674127936363, 0.0358051136136055, -0.17334404587745667, -0.0860968679189682, -0.2932082414627075, 0.19850300252437592, 0.23596949875354767, 0.4926868975162506, -0.13584211468696594, 0.01154321525245905, -0.035913970321416855, 0.0869290828704834], [0.03900238499045372, 0.11609276384115219, 0.11459255963563919, -0.10769818723201752, 0.17971351742744446, 0.1385210007429123, 0.006060007028281689, 0.32543131709098816, -0.1400759518146515, -0.007898859679698944, -0.014716831967234612, -0.33901211619377136, -0.1434755176305771, 0.07256186008453369, -0.28438249230384827, 0.08552659302949905, -0.1701672524213791, -0.029645202681422234, 0.03846585005521774, 0.12341275811195374, -0.04365650936961174, -0.01999729312956333, 0.046977680176496506, -0.05857231467962265, 0.05304674431681633, -0.03807252645492554, 0.02123098634183407, -0.05030409246683121, 0.1739547848701477, 0.052482616156339645, -0.16459114849567413, -0.16674554347991943, 0.10745632648468018, -0.19496043026447296, -0.20281168818473816, 0.1445574313402176, 0.1663254350423813, 0.07344778627157211, -0.05455341935157776, -0.07443477213382721, 0.13916316628456116, 0.09371344745159149, -0.1428890973329544, -0.05296669155359268, -0.02973075956106186, 0.03721862658858299, -0.32707479596138, -0.014843967743217945, 0.15798962116241455, -0.12590926885604858, -0.15450419485569, 0.038961466401815414, -0.12424716353416443, 0.005080899689346552, -0.12938620150089264, 0.13122117519378662, -0.14552746713161469, 0.1449735313653946, -0.0049834963865578175, 0.3080993592739105, -0.25679758191108704, 0.07734694331884384, -0.24084489047527313, 0.06288892030715942], [0.19907288253307343, -0.1257620006799698, 0.0961238220334053, -0.3435371220111847, 0.10445521771907806, 0.03504141792654991, 0.10078185051679611, 0.33752286434173584, -0.0479554608464241, -0.015628129243850708, 0.01178805436939001, -0.01661592908203602, -0.10711874812841415, -0.08662614971399307, -0.05923626571893692, 0.04625597968697548, -0.26063424348831177, 0.0527491420507431, -0.07134342193603516, -0.08453090488910675, -0.02142300456762314, -0.03168846666812897, 0.16820304095745087, 0.06891387701034546, 0.09804704040288925, -0.10120800882577896, -0.03214496374130249, -0.1500469446182251, 0.032690826803445816, 0.17640140652656555, 0.11829043179750443, 0.03805230185389519, 0.11284305155277252, -0.042588237673044205, -0.1378147155046463, 0.08907801657915115, 0.10942219197750092, 0.006955093238502741, -0.08871275186538696, -0.01588808000087738, 0.26108625531196594, 0.032120537012815475, 0.04571174830198288, -0.14198322594165802, 0.04971831291913986, 0.14354105293750763, 0.04498542845249176, -0.10909271985292435, 0.3554249405860901, -0.170541450381279, -0.11113190650939941, -0.042530592530965805, 0.006761918775737286, -0.002876018173992634, -0.11173177510499954, 0.10893534123897552, -0.08599308878183365, -0.03610212355852127, -0.07256511598825455, 0.3534501791000366, -0.11102580279111862, -0.06359268724918365, 0.0085017504170537, 0.010045910254120827], [0.058968156576156616, -0.0874832347035408, -0.005621138494461775, -0.2766297161579132, -0.05042002722620964, 0.08312221616506577, 0.020124394446611404, -0.010950528085231781, -0.0689505860209465, -0.24574895203113556, -0.160641148686409, -0.09972583502531052, 0.08038512617349625, -0.027245642617344856, 0.014200720936059952, 0.18258222937583923, -0.31256359815597534, -0.08996066451072693, 0.07262129336595535, -0.15840847790241241, 0.04000934213399887, 0.023247968405485153, -0.013745316304266453, -0.03322500362992287, 0.033500637859106064, -0.14039960503578186, -0.05016845837235451, -0.2723225951194763, 0.18486733734607697, 0.05092767998576164, -0.0016534468159079552, -0.11675556004047394, 0.046440497040748596, 0.17168596386909485, -0.09760280698537827, -0.0543907955288887, 0.05290655791759491, 0.14230959117412567, 0.001948677352629602, -0.16620883345603943, 0.3023262023925781, 0.014715730212628841, 0.07117282599210739, -0.2144598662853241, -0.09124661982059479, 0.29133832454681396, 0.07334926724433899, 0.046577088534832, 0.08048181980848312, -0.18664661049842834, -0.1141563132405281, -0.2218417525291443, 0.03364144638180733, -0.018446382135152817, -0.1566736400127411, 0.05250425636768341, 0.09206915646791458, -0.05305494740605354, 0.10221854597330093, 0.16670763492584229, -0.05304116755723953, 0.03402547538280487, -0.053724732249975204, 0.1588839292526245], [0.0525301918387413, -0.03505275771021843, 0.0006925358902662992, -0.08532824367284775, 0.09993696957826614, 0.1830168217420578, 0.09938549250364304, 0.121827632188797, 0.018364137038588524, -0.08756320923566818, 0.0814027413725853, -0.10864963382482529, 0.16054710745811462, -0.09099609404802322, 0.047064218670129776, 0.12575481832027435, -0.13500308990478516, -0.2319609373807907, 0.14061424136161804, -0.09354477375745773, 0.09656591713428497, 0.16503754258155823, 0.12345866113901138, 0.210052490234375, 0.03146662190556526, -0.27517369389533997, -0.02574772574007511, -0.14648105204105377, 0.188200905919075, 0.041473787277936935, 0.09718146175146103, 0.1677616834640503, -0.001133681507781148, 0.2056877613067627, 0.023481808602809906, -0.0662737637758255, -0.07004491984844208, 0.0644732117652893, -0.13174888491630554, -0.15945497155189514, 